{"learner":{"attributes":{"scikit_learn":"{\"_estimator_type\": \"regressor\"}"},"feature_names":["body_pct","upper_shadow_pct","lower_shadow_pct","amplitude_pct","change_pct","return_5d","return_10d","return_20d","return_60d","ma5_bias","ma10_bias","ma20_bias","ma60_bias_prev","drawdown_60d","low_position_60d","min_volume_5d_ratio_to_60d","volume_ratio_to_10d","volume_ratio_to_60d","ma_convergence_pct","amount_ratio_to_10d","turnover"],"feature_types":["float","float","float","float","float","float","float","float","float","float","float","float","float","float","float","float","float","float","float","float","float"],"gradient_booster":{"model":{"gbtree_model_param":{"num_parallel_tree":"1","num_trees":"220"},"iteration_indptr":[0,1,2,3,4,5,6,7,8,9,10,11,12,13,14,15,16,17,18,19,20,21,22,23,24,25,26,27,28,29,30,31,32,33,34,35,36,37,38,39,40,41,42,43,44,45,46,47,48,49,50,51,52,53,54,55,56,57,58,59,60,61,62,63,64,65,66,67,68,69,70,71,72,73,74,75,76,77,78,79,80,81,82,83,84,85,86,87,88,89,90,91,92,93,94,95,96,97,98,99,100,101,102,103,104,105,106,107,108,109,110,111,112,113,114,115,116,117,118,119,120,121,122,123,124,125,126,127,128,129,130,131,132,133,134,135,136,137,138,139,140,141,142,143,144,145,146,147,148,149,150,151,152,153,154,155,156,157,158,159,160,161,162,163,164,165,166,167,168,169,170,171,172,173,174,175,176,177,178,179,180,181,182,183,184,185,186,187,188,189,190,191,192,193,194,195,196,197,198,199,200,201,202,203,204,205,206,207,208,209,210,211,212,213,214,215,216,217,218,219,220],"tree_info":[0,0,0,0,0,0,0,0,0,0,0,0,0,0,0,0,0,0,0,0,0,0,0,0,0,0,0,0,0,0,0,0,0,0,0,0,0,0,0,0,0,0,0,0,0,0,0,0,0,0,0,0,0,0,0,0,0,0,0,0,0,0,0,0,0,0,0,0,0,0,0,0,0,0,0,0,0,0,0,0,0,0,0,0,0,0,0,0,0,0,0,0,0,0,0,0,0,0,0,0,0,0,0,0,0,0,0,0,0,0,0,0,0,0,0,0,0,0,0,0,0,0,0,0,0,0,0,0,0,0,0,0,0,0,0,0,0,0,0,0,0,0,0,0,0,0,0,0,0,0,0,0,0,0,0,0,0,0,0,0,0,0,0,0,0,0,0,0,0,0,0,0,0,0,0,0,0,0,0,0,0,0,0,0,0,0,0,0,0,0,0,0,0,0,0,0,0,0,0,0,0,0,0,0,0,0,0,0,0,0,0,0,0,0,0,0,0,0,0,0],"trees":[{"base_weights":[1.7942229E-1,-1.5809187E0,7.3662126E-1,-8.2513876E-2,-5.2324566E-3,2.335129E-3,8.3997436E-2],"categories":[],"categories_nodes":[],"categories_segments":[],"categories_sizes":[],"default_left":[0,0,0,0,0,0,0],"id":0,"left_children":[1,3,5,-1,-1,-1,-1],"loss_changes":[7.0965814E2,1.1915338E2,5.059455E2,0E0,0E0,0E0,0E0],"parents":[2147483647,0,0,1,1,2,2],"right_children":[2,4,6,-1,-1,-1,-1],"split_conditions":[1.0541177E1,1.0939511E0,7.458234E0,-8.2513876E-2,-5.2324566E-3,2.335129E-3,8.3997436E-2],"split_indices":[14,7,5,0,0,0,0],"split_type":[0,0,0,0,0,0,0],"sum_hessian":[7.13E2,1.69E2,5.44E2,1.25E2,4.4E1,3.67E2,1.77E2],"tree_param":{"num_deleted":"0","num_feature":"21","num_nodes":"7","size_leaf_vector":"1"}},{"base_weights":[-2.2923326E-2,-5.2824426E-1,1.7976308E0,-3.0129673E-2,6.380949E-2,2.7712883E-2,1.5178245E-1],"categories":[],"categories_nodes":[],"categories_segments":[],"categories_sizes":[],"default_left":[0,0,0,0,0,0,0],"id":1,"left_children":[1,3,5,-1,-1,-1,-1],"loss_changes":[6.6924725E2,2.779206E2,3.3319528E2,0E0,0E0,0E0,0E0],"parents":[2147483647,0,0,1,1,2,2],"right_children":[2,4,6,-1,-1,-1,-1],"split_conditions":[9.6849E0,1.3350384E1,8.032128E0,-3.0129673E-2,6.380949E-2,2.7712883E-2,1.5178245E-1],"split_indices":[4,3,5,0,0,0,0],"split_type":[0,0,0,0,0,0,0],"sum_hessian":[7.18E2,5.65E2,1.53E2,5.14E2,5.1E1,1.03E2,5E1],"tree_param":{"num_deleted":"0","num_feature":"21","num_nodes":"7","size_leaf_vector":"1"}},{"base_weights":[9.28431E-4,-5.6974924E-1,1.4272604E0,-5.163842E-2,1.3642861E-2,1.2593848E-1,2.2187284E-3],"categories":[],"categories_nodes":[],"categories_segments":[],"categories_sizes":[],"default_left":[0,0,0,0,0,0,0],"id":2,"left_children":[1,3,5,-1,-1,-1,-1],"loss_changes":[5.921852E2,3.4360458E2,4.8864008E2,0E0,0E0,0E0,0E0],"parents":[2147483647,0,0,1,1,2,2],"right_children":[2,4,6,-1,-1,-1,-1],"split_conditions":[7.3937154E0,5.578391E-1,2.7674186E0,-5.163842E-2,1.3642861E-2,1.2593848E-1,2.2187284E-3],"split_indices":[5,2,19,0,0,0,0],"split_type":[0,0,0,0,0,0,0],"sum_hessian":[7.17E2,5.14E2,2.03E2,2.86E2,2.28E2,8.7E1,1.16E2],"tree_param":{"num_deleted":"0","num_feature":"21","num_nodes":"7","size_leaf_vector":"1"}},{"base_weights":[-3.0027018E-3,-5.845074E-1,1.7683394E0,1.7848583E-4,-5.3815726E-2,3.9267298E-2,1.5079218E-1],"categories":[],"categories_nodes":[],"categories_segments":[],"categories_sizes":[],"default_left":[0,0,0,0,0,0,0],"id":3,"left_children":[1,3,5,-1,-1,-1,-1],"loss_changes":[7.379672E2,2.4269534E2,2.5780103E2,0E0,0E0,0E0,0E0],"parents":[2147483647,0,0,1,1,2,2],"right_children":[2,4,6,-1,-1,-1,-1],"split_conditions":[8.048038E0,2.7857144E0,7.3200994E0,1.7848583E-4,-5.3815726E-2,3.9267298E-2,1.5079218E-1],"split_indices":[0,6,10,0,0,0,0],"split_type":[0,0,0,0,0,0,0],"sum_hessian":[7.07E2,5.35E2,1.72E2,3.04E2,2.31E2,1.29E2,4.3E1],"tree_param":{"num_deleted":"0","num_feature":"21","num_nodes":"7","size_leaf_vector":"1"}},{"base_weights":[-5.462821E-2,-1.5404963E0,4.6541816E-1,-7.936718E-2,-1.051831E-2,3.800323E-2,-5.143479E-2],"categories":[],"categories_nodes":[],"categories_segments":[],"categories_sizes":[],"default_left":[0,0,0,0,0,0,0],"id":4,"left_children":[1,3,5,-1,-1,-1,-1],"loss_changes":[5.542993E2,1.01696686E2,4.5664456E2,0E0,0E0,0E0,0E0],"parents":[2147483647,0,0,1,1,2,2],"right_children":[2,4,6,-1,-1,-1,-1],"split_conditions":[1.0541177E1,1.0939511E0,2.852174E1,-7.936718E-2,-1.051831E-2,3.800323E-2,-5.143479E-2],"split_indices":[14,7,14,0,0,0,0],"split_type":[0,0,0,0,0,0,0],"sum_hessian":[7.07E2,1.81E2,5.26E2,1.32E2,4.9E1,4.14E2,1.12E2],"tree_param":{"num_deleted":"0","num_feature":"21","num_nodes":"7","size_leaf_vector":"1"}},{"base_weights":[-6.896791E-2,1.37469E-1,-2.8213614E-1,-2.8785195E-2,5.8981393E-2],"categories":[],"categories_nodes":[],"categories_segments":[],"categories_sizes":[],"default_left":[0,0,0,0,0],"id":5,"left_children":[1,-1,3,-1,-1],"loss_changes":[5.3460284E2,0E0,5.236876E2,0E0,0E0],"parents":[2147483647,0,0,2,2],"right_children":[2,-1,4,-1,-1],"split_conditions":[4.3135E0,1.37469E-1,6.6364794E0,-2.8785195E-2,5.8981393E-2],"split_indices":[4,0,10,0,0],"split_type":[0,0,0,0,0],"sum_hessian":[7.06E2,3.6E1,6.7E2,5.39E2,1.31E2],"tree_param":{"num_deleted":"0","num_feature":"21","num_nodes":"5","size_leaf_vector":"1"}},{"base_weights":[-2.3183916E-2,-4.354127E-1,1.5221779E0,1.04330346E-1,-2.644431E-2,1.3021834E-1,1.043225E-2],"categories":[],"categories_nodes":[],"categories_segments":[],"categories_sizes":[],"default_left":[0,0,0,0,0,0,0],"id":6,"left_children":[1,3,5,-1,-1,-1,-1],"loss_changes":[4.569819E2,3.9714407E2,3.2412967E2,0E0,0E0,0E0,0E0],"parents":[2147483647,0,0,1,1,2,2],"right_children":[2,4,6,-1,-1,-1,-1],"split_conditions":[9.6849E0,4.3135E0,2.9723248E-1,1.04330346E-1,-2.644431E-2,1.3021834E-1,1.043225E-2],"split_indices":[4,4,15,0,0,0,0],"split_type":[0,0,0,0,0,0,0],"sum_hessian":[7.08E2,5.62E2,1.46E2,3.5E1,5.27E2,5.8E1,8.8E1],"tree_param":{"num_deleted":"0","num_feature":"21","num_nodes":"7","size_leaf_vector":"1"}},{"base_weights":[4.804835E-2,-7.295457E-1,1.0153412E0,2.2584586E-3,-6.5976515E-2,7.6394854E-3,1.0954744E-1],"categories":[],"categories_nodes":[],"categories_segments":[],"categories_sizes":[],"default_left":[0,0,0,0,0,0,0],"id":7,"left_children":[1,3,5,-1,-1,-1,-1],"loss_changes":[5.348724E2,2.8613287E2,4.462647E2,0E0,0E0,0E0,0E0],"parents":[2147483647,0,0,1,1,2,2],"right_children":[2,4,6,-1,-1,-1,-1],"split_conditions":[6.6688247E0,2.7857144E0,7.5574365E0,2.2584586E-3,-6.5976515E-2,7.6394854E-3,1.0954744E-1],"split_indices":[0,6,5,0,0,0,0],"split_type":[0,0,0,0,0,0,0],"sum_hessian":[7.01E2,3.89E2,3.12E2,2.12E2,1.77E2,2.15E2,9.7E1],"tree_param":{"num_deleted":"0","num_feature":"21","num_nodes":"7","size_leaf_vector":"1"}},{"base_weights":[1.0155251E-1,8.7772167E-1,-6.3935703E-1,1.3267983E-1,1.8111335E-2,-4.5312636E-2,4.6117593E-2],"categories":[],"categories_nodes":[],"categories_segments":[],"categories_sizes":[],"default_left":[0,0,0,0,0,0,0],"id":8,"left_children":[1,3,5,-1,-1,-1,-1],"loss_changes":[4.204267E2,3.6065094E2,3.3729523E2,0E0,0E0,0E0,0E0],"parents":[2147483647,0,0,1,1,2,2],"right_children":[2,4,6,-1,-1,-1,-1],"split_conditions":[3.1621334E-1,-1.4969632E1,3.8052785E-1,1.3267983E-1,1.8111335E-2,-4.5312636E-2,4.6117593E-2],"split_indices":[15,8,15,0,0,0,0],"split_type":[0,0,0,0,0,0,0],"sum_hessian":[7.21E2,3.52E2,3.69E2,4.7E1,3.05E2,2.91E2,7.8E1],"tree_param":{"num_deleted":"0","num_feature":"21","num_nodes":"7","size_leaf_vector":"1"}},{"base_weights":[-1.342521E-1,-6.4406705E-1,1.3431969E0,1.9122254E-2,-5.0570533E-2,3.7180996E-4,1.4364095E-1],"categories":[],"categories_nodes":[],"categories_segments":[],"categories_sizes":[],"default_left":[0,0,0,0,0,0,0],"id":9,"left_children":[1,3,5,-1,-1,-1,-1],"loss_changes":[5.3725964E2,3.722616E2,5.4673645E2,0E0,0E0,0E0,0E0],"parents":[2147483647,0,0,1,1,2,2],"right_children":[2,4,6,-1,-1,-1,-1],"split_conditions":[7.704918E0,2.9371524E-1,9.6763E0,1.9122254E-2,-5.0570533E-2,3.7180996E-4,1.4364095E-1],"split_indices":[5,15,20,0,0,0,0],"split_type":[0,0,0,0,0,0,0],"sum_hessian":[7.03E2,5.25E2,1.78E2,1.87E2,3.38E2,1.15E2,6.3E1],"tree_param":{"num_deleted":"0","num_feature":"21","num_nodes":"7","size_leaf_vector":"1"}},{"base_weights":[-6.1546564E-2,-4.7294205E-1,1.8306527E0,6.057884E-2,-2.9229432E-2,1.2729825E-1,-1.5578326E-2],"categories":[],"categories_nodes":[],"categories_segments":[],"categories_sizes":[],"default_left":[0,0,0,0,0,0,0],"id":10,"left_children":[1,3,5,-1,-1,-1,-1],"loss_changes":[5.4933813E2,3.023003E2,3.857391E2,0E0,0E0,0E0,0E0],"parents":[2147483647,0,0,1,1,2,2],"right_children":[2,4,6,-1,-1,-1,-1],"split_conditions":[4.109696E0,-4.3305634E1,3.303859E-1,6.057884E-2,-2.9229432E-2,1.2729825E-1,-1.5578326E-2],"split_indices":[11,13,15,0,0,0,0],"split_type":[0,0,0,0,0,0,0],"sum_hessian":[6.96E2,5.75E2,1.21E2,6.3E1,5.12E2,7.4E1,4.7E1],"tree_param":{"num_deleted":"0","num_feature":"21","num_nodes":"7","size_leaf_vector":"1"}},{"base_weights":[-1.9052686E-1,-7.241641E-1,1.4865915E0,-4.2631853E-2,4.1482504E-2,2.2638245E-2,1.7949902E-1],"categories":[],"categories_nodes":[],"categories_segments":[],"categories_sizes":[],"default_left":[0,0,0,0,0,0,0],"id":11,"left_children":[1,3,5,-1,-1,-1,-1],"loss_changes":[6.4490704E2,3.340646E2,4.65488E2,0E0,0E0,0E0,0E0],"parents":[2147483647,0,0,1,1,2,2],"right_children":[2,4,6,-1,-1,-1,-1],"split_conditions":[3.8961039E0,9.411765E0,-2.5714285E1,-4.2631853E-2,4.1482504E-2,2.2638245E-2,1.7949902E-1],"split_indices":[11,0,13,0,0,0,0],"split_type":[0,0,0,0,0,0,0],"sum_hessian":[7.1E2,5.41E2,1.69E2,4.55E2,8.6E1,1.34E2,3.5E1],"tree_param":{"num_deleted":"0","num_feature":"21","num_nodes":"7","size_leaf_vector":"1"}},{"base_weights":[1.3564667E-1,-7.7525914E-1,8.7658685E-1,-4.9579395E-3,-8.018277E-2,1.2303252E-2,8.869697E-2],"categories":[],"categories_nodes":[],"categories_segments":[],"categories_sizes":[],"default_left":[0,0,0,0,0,0,0],"id":12,"left_children":[1,3,5,-1,-1,-1,-1],"loss_changes":[4.9344534E2,2.6031085E2,3.027937E2,0E0,0E0,0E0,0E0],"parents":[2147483647,0,0,1,1,2,2],"right_children":[2,4,6,-1,-1,-1,-1],"split_conditions":[5.1754384E0,3.1083477E0,4.0447392E0,-4.9579395E-3,-8.018277E-2,1.2303252E-2,8.869697E-2],"split_indices":[5,19,11,0,0,0,0],"split_type":[0,0,0,0,0,0,0],"sum_hessian":[7.21E2,3.23E2,3.98E2,2.15E2,1.08E2,2.84E2,1.14E2],"tree_param":{"num_deleted":"0","num_feature":"21","num_nodes":"7","size_leaf_vector":"1"}},{"base_weights":[6.084466E-2,1.3671118E-1,-1.2369523E-1,-2.0839319E-2,5.390576E-2],"categories":[],"categories_nodes":[],"categories_segments":[],"categories_sizes":[],"default_left":[0,0,0,0,0],"id":13,"left_children":[1,-1,3,-1,-1],"loss_changes":[4.3988068E2,0E0,3.959114E2,0E0,0E0],"parents":[2147483647,0,0,2,2],"right_children":[2,-1,4,-1,-1],"split_conditions":[4.3135E0,1.3671118E-1,9.6849E0,-2.0839319E-2,5.390576E-2],"split_indices":[4,0,4,0,0],"split_type":[0,0,0,0,0],"sum_hessian":[6.99E2,3.2E1,6.67E2,5.28E2,1.39E2],"tree_param":{"num_deleted":"0","num_feature":"21","num_nodes":"5","size_leaf_vector":"1"}},{"base_weights":[1.8811034E-2,1.8468394E0,-2.795877E-1,1.35707E-1,-1.3586577E-2,-4.723323E-2,2.135152E-2],"categories":[],"categories_nodes":[],"categories_segments":[],"categories_sizes":[],"default_left":[0,0,0,0,0,0,0],"id":14,"left_children":[1,3,5,-1,-1,-1,-1],"loss_changes":[3.808385E2,3.3852597E2,4.4257162E2,0E0,0E0,0E0,0E0],"parents":[2147483647,0,0,1,1,2,2],"right_children":[2,4,6,-1,-1,-1,-1],"split_conditions":[-1.5192743E1,-3.476235E1,5.349048E0,1.35707E-1,-1.3586577E-2,-4.723323E-2,2.135152E-2],"split_indices":[8,13,5,0,0,0,0],"split_type":[0,0,0,0,0,0,0],"sum_hessian":[6.87E2,9.3E1,5.94E2,5.3E1,4E1,2.81E2,3.13E2],"tree_param":{"num_deleted":"0","num_feature":"21","num_nodes":"7","size_leaf_vector":"1"}},{"base_weights":[-6.223709E-2,-5.5816954E-1,1.3044385E0,-3.0954843E-2,1.1300841E-1,1.16635874E-1,6.350205E-4],"categories":[],"categories_nodes":[],"categories_segments":[],"categories_sizes":[],"default_left":[0,0,0,0,0,0,0],"id":15,"left_children":[1,3,5,-1,-1,-1,-1],"loss_changes":[4.9397922E2,4.0034927E2,4.0113702E2,0E0,0E0,0E0,0E0],"parents":[2147483647,0,0,1,1,2,2],"right_children":[2,4,6,-1,-1,-1,-1],"split_conditions":[7.5574365E0,2.6812918E0,2.6143792E0,-3.0954843E-2,1.1300841E-1,1.16635874E-1,6.350205E-4],"split_indices":[5,2,6,0,0,0,0],"split_type":[0,0,0,0,0,0,0],"sum_hessian":[7.19E2,5.3E2,1.89E2,5.02E2,2.8E1,8.1E1,1.08E2],"tree_param":{"num_deleted":"0","num_feature":"21","num_nodes":"7","size_leaf_vector":"1"}},{"base_weights":[5.262071E-2,1.17563896E-1,-1.2460619E-1,9.532816E-2,-1.3814055E-2],"categories":[],"categories_nodes":[],"categories_segments":[],"categories_sizes":[],"default_left":[0,0,0,0,0],"id":16,"left_children":[1,-1,3,-1,-1],"loss_changes":[3.802591E2,0E0,3.900537E2,0E0,0E0],"parents":[2147483647,0,0,2,2],"right_children":[2,-1,4,-1,-1],"split_conditions":[4.3135E0,1.17563896E-1,-1.9588224E1,9.532816E-2,-1.3814055E-2],"split_indices":[4,0,8,0,0],"split_type":[0,0,0,0,0],"sum_hessian":[7.32E2,3.8E1,6.94E2,5.2E1,6.42E2],"tree_param":{"num_deleted":"0","num_feature":"21","num_nodes":"5","size_leaf_vector":"1"}},{"base_weights":[-1.3970129E-1,-5.1327294E-1,1.1906241E0,7.45211E-2,-2.748749E-2,7.4028745E-2,-6.1399538E-2],"categories":[],"categories_nodes":[],"categories_segments":[],"categories_sizes":[],"default_left":[0,0,0,0,0,0,0],"id":17,"left_children":[1,3,5,-1,-1,-1,-1],"loss_changes":[3.53579E2,2.3517967E2,2.9503125E2,0E0,0E0,0E0,0E0],"parents":[2147483647,0,0,1,1,2,2],"right_children":[2,4,6,-1,-1,-1,-1],"split_conditions":[9.6849E0,4.3135E0,2.1962616E1,7.45211E-2,-2.748749E-2,7.4028745E-2,-6.1399538E-2],"split_indices":[4,4,8,0,0,0,0],"split_type":[0,0,0,0,0,0,0],"sum_hessian":[7.01E2,5.5E2,1.51E2,3.4E1,5.16E2,1.23E2,2.8E1],"tree_param":{"num_deleted":"0","num_feature":"21","num_nodes":"7","size_leaf_vector":"1"}},{"base_weights":[7.495433E-2,-4.169451E-1,1.4022247E0,5.2052205E-3,-6.5466836E-2,-1.7570976E-2,1.1722285E-1],"categories":[],"categories_nodes":[],"categories_segments":[],"categories_sizes":[],"default_left":[0,0,0,0,0,0,0],"id":18,"left_children":[1,3,5,-1,-1,-1,-1],"loss_changes":[4.780623E2,3.5814685E2,5.6494324E2,0E0,0E0,0E0,0E0],"parents":[2147483647,0,0,1,1,2,2],"right_children":[2,4,6,-1,-1,-1,-1],"split_conditions":[7.458234E0,8.8316E0,-3.3165104E0,5.2052205E-3,-6.5466836E-2,-1.7570976E-2,1.1722285E-1],"split_indices":[5,20,7,0,0,0,0],"split_type":[0,0,0,0,0,0,0],"sum_hessian":[7.22E2,5.29E2,1.93E2,3.68E2,1.61E2,8.9E1,1.04E2],"tree_param":{"num_deleted":"0","num_feature":"21","num_nodes":"7","size_leaf_vector":"1"}},{"base_weights":[2.8222488E-2,-5.45378E-1,1.5054675E0,-3.450385E-2,8.339062E-2,1.4847192E-1,-2.7440418E-3],"categories":[],"categories_nodes":[],"categories_segments":[],"categories_sizes":[],"default_left":[0,0,0,0,0,0,0],"id":19,"left_children":[1,3,5,-1,-1,-1,-1],"loss_changes":[5.8756116E2,4.24711E2,6.7684033E2,0E0,0E0,0E0,0E0],"parents":[2147483647,0,0,1,1,2,2],"right_children":[2,4,6,-1,-1,-1,-1],"split_conditions":[6.003752E0,1.3412817E1,2.7698338E0,-3.450385E-2,8.339062E-2,1.4847192E-1,-2.7440418E-3],"split_indices":[10,3,19,0,0,0,0],"split_type":[0,0,0,0,0,0,0],"sum_hessian":[6.83E2,4.94E2,1.89E2,4.44E2,5E1,7.6E1,1.13E2],"tree_param":{"num_deleted":"0","num_feature":"21","num_nodes":"7","size_leaf_vector":"1"}},{"base_weights":[-1.8606625E-2,-4.2738572E-1,1.4652201E0,-3.5851758E-2,2.614129E-2,8.422315E-2,-5.1580794E-2],"categories":[],"categories_nodes":[],"categories_segments":[],"categories_sizes":[],"default_left":[0,0,0,0,0,0,0],"id":20,"left_children":[1,3,5,-1,-1,-1,-1],"loss_changes":[4.3266132E2,2.8688693E2,2.856433E2,0E0,0E0,0E0,0E0],"parents":[2147483647,0,0,1,1,2,2],"right_children":[2,4,6,-1,-1,-1,-1],"split_conditions":[9.6849E0,-4.820012E0,3.5285713E1,-3.5851758E-2,2.614129E-2,8.422315E-2,-5.1580794E-2],"split_indices":[4,12,14,0,0,0,0],"split_type":[0,0,0,0,0,0,0],"sum_hessian":[7.04E2,5.55E2,1.49E2,3.88E2,1.67E2,1.22E2,2.7E1],"tree_param":{"num_deleted":"0","num_feature":"21","num_nodes":"7","size_leaf_vector":"1"}},{"base_weights":[-6.883159E-2,-1.1450864E0,3.90888E-1,-5.884345E-2,4.728812E-2,1.3196678E-1,7.3468685E-3],"categories":[],"categories_nodes":[],"categories_segments":[],"categories_sizes":[],"default_left":[0,0,0,0,0,0,0],"id":21,"left_children":[1,3,5,-1,-1,-1,-1],"loss_changes":[3.5539E2,1.7195966E2,2.9835834E2,0E0,0E0,0E0,0E0],"parents":[2147483647,0,0,1,1,2,2],"right_children":[2,4,6,-1,-1,-1,-1],"split_conditions":[1.14388485E1,4.0447392E0,4.3135E0,-5.884345E-2,4.728812E-2,1.3196678E-1,7.3468685E-3],"split_indices":[14,11,4,0,0,0,0],"split_type":[0,0,0,0,0,0,0],"sum_hessian":[7.08E2,2.1E2,4.98E2,1.86E2,2.4E1,2.8E1,4.7E2],"tree_param":{"num_deleted":"0","num_feature":"21","num_nodes":"7","size_leaf_vector":"1"}},{"base_weights":[2.2211133E-2,-3.804278E-1,1.5532086E0,3.46257E-2,-3.81191E-2,8.3617486E-2,-4.7255263E-2],"categories":[],"categories_nodes":[],"categories_segments":[],"categories_sizes":[],"default_left":[0,0,0,0,0,0,0],"id":22,"left_children":[1,3,5,-1,-1,-1,-1],"loss_changes":[4.4984277E2,4.1582166E2,2.3610574E2,0E0,0E0,0E0,0E0],"parents":[2147483647,0,0,1,1,2,2],"right_children":[2,4,6,-1,-1,-1,-1],"split_conditions":[9.6849E0,-3.491969E1,2.496218E0,3.46257E-2,-3.81191E-2,8.3617486E-2,-4.7255263E-2],"split_indices":[4,13,7,0,0,0,0],"split_type":[0,0,0,0,0,0,0],"sum_hessian":[7.19E2,5.72E2,1.47E2,1.79E2,3.93E2,1.24E2,2.3E1],"tree_param":{"num_deleted":"0","num_feature":"21","num_nodes":"7","size_leaf_vector":"1"}},{"base_weights":[-4.5013756E-2,-4.549707E-1,1.319843E0,9.1929006E-4,-6.334633E-2,1.288891E-2,1.795517E-1],"categories":[],"categories_nodes":[],"categories_segments":[],"categories_sizes":[],"default_left":[0,0,0,0,0,0,0],"id":23,"left_children":[1,3,5,-1,-1,-1,-1],"loss_changes":[3.998381E2,2.97665E2,5.1199503E2,0E0,0E0,0E0,0E0],"parents":[2147483647,0,0,1,1,2,2],"right_children":[2,4,6,-1,-1,-1,-1],"split_conditions":[3.8961039E0,2.842658E0,-2.5474684E1,9.1929006E-4,-6.334633E-2,1.288891E-2,1.795517E-1],"split_indices":[11,11,13,0,0,0,0],"split_type":[0,0,0,0,0,0,0],"sum_hessian":[7.05E2,5.45E2,1.6E2,3.86E2,1.59E2,1.26E2,3.4E1],"tree_param":{"num_deleted":"0","num_feature":"21","num_nodes":"7","size_leaf_vector":"1"}},{"base_weights":[1.8956061E-2,-4.9503207E-1,1.3440999E0,2.6194733E-3,-8.030173E-2,-0E0,1.4097112E-1],"categories":[],"categories_nodes":[],"categories_segments":[],"categories_sizes":[],"default_left":[0,0,0,0,0,0,0],"id":24,"left_children":[1,3,5,-1,-1,-1,-1],"loss_changes":[4.9210596E2,4.424798E2,5.914472E2,0E0,0E0,0E0,0E0],"parents":[2147483647,0,0,1,1,2,2],"right_children":[2,4,6,-1,-1,-1,-1],"split_conditions":[7.458234E0,9.1646E0,9.6763E0,2.6194733E-3,-8.030173E-2,-0E0,1.4097112E-1],"split_indices":[5,20,20,0,0,0,0],"split_type":[0,0,0,0,0,0,0],"sum_hessian":[7.12E2,5.15E2,1.97E2,3.79E2,1.36E2,1.25E2,7.2E1],"tree_param":{"num_deleted":"0","num_feature":"21","num_nodes":"7","size_leaf_vector":"1"}},{"base_weights":[-3.641671E-2,1.1152676E-1,-2.1858E-1,-3.1142717E-2,1.9870432E-2],"categories":[],"categories_nodes":[],"categories_segments":[],"categories_sizes":[],"default_left":[0,0,0,0,0],"id":25,"left_children":[1,-1,3,-1,-1],"loss_changes":[3.737718E2,0E0,2.76073E2,0E0,0E0],"parents":[2147483647,0,0,2,2],"right_children":[2,-1,4,-1,-1],"split_conditions":[4.3135E0,1.1152676E-1,6.696629E0,-3.1142717E-2,1.9870432E-2],"split_indices":[4,0,0,0,0],"split_type":[0,0,0,0,0],"sum_hessian":[7.18E2,3.9E1,6.79E2,3.81E2,2.98E2],"tree_param":{"num_deleted":"0","num_feature":"21","num_nodes":"5","size_leaf_vector":"1"}},{"base_weights":[8.8851176E-2,5.817386E-1,-7.8085035E-1,1.12702064E-1,8.104278E-3,-5.93353E-2,1.1005428E-2],"categories":[],"categories_nodes":[],"categories_segments":[],"categories_sizes":[],"default_left":[0,0,0,0,0,0,0],"id":26,"left_children":[1,3,5,-1,-1,-1,-1],"loss_changes":[3.176691E2,3.965824E2,2.0146434E2,0E0,0E0,0E0,0E0],"parents":[2147483647,0,0,1,1,2,2],"right_children":[2,4,6,-1,-1,-1,-1],"split_conditions":[3.39448E-1,-1.4969632E1,3.7282446E-1,1.12702064E-1,8.104278E-3,-5.93353E-2,1.1005428E-2],"split_indices":[15,8,15,0,0,0,0],"split_type":[0,0,0,0,0,0,0],"sum_hessian":[7.31E2,4.68E2,2.63E2,6.3E1,4.05E2,1.57E2,1.06E2],"tree_param":{"num_deleted":"0","num_feature":"21","num_nodes":"7","size_leaf_vector":"1"}},{"base_weights":[1.0184317E-1,-3.057644E-1,1.173047E0,-2.5831677E-2,1.0087946E-1,1.3609177E-1,-1.3544556E-2],"categories":[],"categories_nodes":[],"categories_segments":[],"categories_sizes":[],"default_left":[0,0,0,0,0,0,0],"id":27,"left_children":[1,3,5,-1,-1,-1,-1],"loss_changes":[3.152913E2,5.1007678E2,6.778955E2,0E0,0E0,0E0,0E0],"parents":[2147483647,0,0,1,1,2,2],"right_children":[2,4,6,-1,-1,-1,-1],"split_conditions":[6.003752E0,1.3412817E1,2.7698338E0,-2.5831677E-2,1.0087946E-1,1.3609177E-1,-1.3544556E-2],"split_indices":[10,3,19,0,0,0,0],"split_type":[0,0,0,0,0,0,0],"sum_hessian":[7.12E2,5.18E2,1.94E2,4.66E2,5.2E1,7.6E1,1.18E2],"tree_param":{"num_deleted":"0","num_feature":"21","num_nodes":"7","size_leaf_vector":"1"}},{"base_weights":[1.090476E-1,3.7367508E-1,-2.1861465E0,8.807819E-2,1.8125109E-3,-4.569854E-2,-1.5013796E-1],"categories":[],"categories_nodes":[],"categories_segments":[],"categories_sizes":[],"default_left":[0,0,0,0,0,0,0],"id":28,"left_children":[1,3,5,-1,-1,-1,-1],"loss_changes":[4.4655948E2,3.940003E2,1.0042944E2,0E0,0E0,0E0,0E0],"parents":[2147483647,0,0,1,1,2,2],"right_children":[2,4,6,-1,-1,-1,-1],"split_conditions":[4.2970576E0,-1.4969632E1,7.7778E0,8.807819E-2,1.8125109E-3,-4.569854E-2,-1.5013796E-1],"split_indices":[19,8,4,0,0,0,0],"split_type":[0,0,0,0,0,0,0],"sum_hessian":[7.25E2,6.54E2,7.1E1,9.5E1,5.59E2,4.8E1,2.3E1],"tree_param":{"num_deleted":"0","num_feature":"21","num_nodes":"7","size_leaf_vector":"1"}},{"base_weights":[8.027387E-2,2.6998062E0,-1.369042E-1,-0E0,1.956496E-1,-5.0327525E-2,1.1677159E-2],"categories":[],"categories_nodes":[],"categories_segments":[],"categories_sizes":[],"default_left":[0,0,0,0,0,0,0],"id":29,"left_children":[1,3,5,-1,-1,-1,-1],"loss_changes":[4.1615454E2,3.334697E2,3.2688916E2,0E0,0E0,0E0,0E0],"parents":[2147483647,0,0,1,1,2,2],"right_children":[2,4,6,-1,-1,-1,-1],"split_conditions":[-1.9588224E1,1.0541177E1,1.14388485E1,-0E0,1.956496E-1,-5.0327525E-2,1.1677159E-2],"split_indices":[8,14,14,0,0,0,0],"split_type":[0,0,0,0,0,0,0],"sum_hessian":[7.21E2,5.1E1,6.7E2,2.5E1,2.6E1,1.83E2,4.87E2],"tree_param":{"num_deleted":"0","num_feature":"21","num_nodes":"7","size_leaf_vector":"1"}},{"base_weights":[1.00712776E-1,2.0052335E0,-2.192771E-1,-2.3898125E-2,1.529836E-1,-3.7525088E-2,2.5960261E-2],"categories":[],"categories_nodes":[],"categories_segments":[],"categories_sizes":[],"default_left":[0,0,0,0,0,0,0],"id":30,"left_children":[1,3,5,-1,-1,-1,-1],"loss_changes":[4.4066034E2,5.0550107E2,3.8954745E2,0E0,0E0,0E0,0E0],"parents":[2147483647,0,0,1,1,2,2],"right_children":[2,4,6,-1,-1,-1,-1],"split_conditions":[-1.4969632E1,1.0541177E1,6.6688247E0,-2.3898125E-2,1.529836E-1,-3.7525088E-2,2.5960261E-2],"split_indices":[8,14,0,0,0,0,0],"split_type":[0,0,0,0,0,0,0],"sum_hessian":[7.13E2,9.9E1,6.14E2,4.2E1,5.7E1,3.36E2,2.78E2],"tree_param":{"num_deleted":"0","num_feature":"21","num_nodes":"7","size_leaf_vector":"1"}},{"base_weights":[-5.6659365E-3,1.0754565E0,-5.756707E-1,6.815668E-2,-4.193313E-2,1.7357096E-2,-5.0087485E-2],"categories":[],"categories_nodes":[],"categories_segments":[],"categories_sizes":[],"default_left":[0,0,0,0,0,0,0],"id":31,"left_children":[1,3,5,-1,-1,-1,-1],"loss_changes":[4.4654205E2,3.4293787E2,3.2755554E2,0E0,0E0,0E0,0E0],"parents":[2147483647,0,0,1,1,2,2],"right_children":[2,4,6,-1,-1,-1,-1],"split_conditions":[8.9734364E-1,2.852174E1,-3.4E1,6.815668E-2,-4.193313E-2,1.7357096E-2,-5.0087485E-2],"split_indices":[1,14,13,0,0,0,0],"split_type":[0,0,0,0,0,0,0],"sum_hessian":[7.15E2,2.45E2,4.7E2,1.9E2,5.5E1,1.89E2,2.81E2],"tree_param":{"num_deleted":"0","num_feature":"21","num_nodes":"7","size_leaf_vector":"1"}},{"base_weights":[7.323181E-2,-4.1378915E-1,8.9330757E-1,-3.6305662E-2,3.684454E-2,5.266289E-2,-6.1163586E-2],"categories":[],"categories_nodes":[],"categories_segments":[],"categories_sizes":[],"default_left":[0,0,0,0,0,0,0],"id":32,"left_children":[1,3,5,-1,-1,-1,-1],"loss_changes":[2.8725534E2,3.0149286E2,2.8474402E2,0E0,0E0,0E0,0E0],"parents":[2147483647,0,0,1,1,2,2],"right_children":[2,4,6,-1,-1,-1,-1],"split_conditions":[3.892487E0,3.9716442E0,2.7833003E-1,-3.6305662E-2,3.684454E-2,5.266289E-2,-6.1163586E-2],"split_indices":[18,11,7,0,0,0,0],"split_type":[0,0,0,0,0,0,0],"sum_hessian":[7.09E2,4.46E2,2.63E2,3.27E2,1.19E2,2.26E2,3.7E1],"tree_param":{"num_deleted":"0","num_feature":"21","num_nodes":"7","size_leaf_vector":"1"}},{"base_weights":[1.526299E-3,9.3550855E-1,-4.7504118E-1,2.0537226E-2,1.831103E-1,1.7808557E-2,-4.521598E-2],"categories":[],"categories_nodes":[],"categories_segments":[],"categories_sizes":[],"default_left":[0,0,0,0,0,0,0],"id":33,"left_children":[1,3,5,-1,-1,-1,-1],"loss_changes":[3.264891E2,3.6695618E2,2.953609E2,0E0,0E0,0E0,0E0],"parents":[2147483647,0,0,1,1,2,2],"right_children":[2,4,6,-1,-1,-1,-1],"split_conditions":[8.9734364E-1,7.763975E-1,-3.291572E1,2.0537226E-2,1.831103E-1,1.7808557E-2,-4.521598E-2],"split_indices":[1,1,13,0,0,0,0],"split_type":[0,0,0,0,0,0,0],"sum_hessian":[7.23E2,2.43E2,4.8E2,2.23E2,2E1,2E2,2.8E2],"tree_param":{"num_deleted":"0","num_feature":"21","num_nodes":"7","size_leaf_vector":"1"}},{"base_weights":[2.9263983E-2,2.5519915E0,-1.5443194E-1,-3.263364E-2,2.0130152E-1,1.0337064E-1,-1.214185E-2],"categories":[],"categories_nodes":[],"categories_segments":[],"categories_sizes":[],"default_left":[0,0,0,0,0,0,0],"id":34,"left_children":[1,3,5,-1,-1,-1,-1],"loss_changes":[3.345109E2,4.3198633E2,2.7680414E2,0E0,0E0,0E0,0E0],"parents":[2147483647,0,0,1,1,2,2],"right_children":[2,4,6,-1,-1,-1,-1],"split_conditions":[-1.9588224E1,6.5017E0,4.275E0,-3.263364E-2,2.0130152E-1,1.0337064E-1,-1.214185E-2],"split_indices":[8,20,4,0,0,0,0],"split_type":[0,0,0,0,0,0,0],"sum_hessian":[7.1E2,4.4E1,6.66E2,2E1,2.4E1,3E1,6.36E2],"tree_param":{"num_deleted":"0","num_feature":"21","num_nodes":"7","size_leaf_vector":"1"}},{"base_weights":[4.4945303E-2,-6.961753E-1,7.209932E-1,-1.1274049E-2,-6.8926506E-2,1.875737E-1,1.4596167E-2],"categories":[],"categories_nodes":[],"categories_segments":[],"categories_sizes":[],"default_left":[0,0,0,0,0,0,0],"id":35,"left_children":[1,3,5,-1,-1,-1,-1],"loss_changes":[3.6677316E2,1.4507059E2,5.3012885E2,0E0,0E0,0E0,0E0],"parents":[2147483647,0,0,1,1,2,2],"right_children":[2,4,6,-1,-1,-1,-1],"split_conditions":[5.349048E0,9.1646E0,4.4944E0,-1.1274049E-2,-6.8926506E-2,1.875737E-1,1.4596167E-2],"split_indices":[5,20,4,0,0,0,0],"split_type":[0,0,0,0,0,0,0],"sum_hessian":[7.22E2,3.44E2,3.78E2,2.5E2,9.4E1,2.6E1,3.52E2],"tree_param":{"num_deleted":"0","num_feature":"21","num_nodes":"7","size_leaf_vector":"1"}},{"base_weights":[-1.2552541E-1,1.3672959E0,-3.996571E-1,1.3083887E-1,-4.73281E-2,-3.3512957E-2,2.6788594E-2],"categories":[],"categories_nodes":[],"categories_segments":[],"categories_sizes":[],"default_left":[0,0,0,0,0,0,0],"id":36,"left_children":[1,3,5,-1,-1,-1,-1],"loss_changes":[2.9280145E2,5.5933575E2,2.8590186E2,0E0,0E0,0E0,0E0],"parents":[2147483647,0,0,1,1,2,2],"right_children":[2,4,6,-1,-1,-1,-1],"split_conditions":[-1.4969632E1,-3.476235E1,8.0519E0,1.3083887E-1,-4.73281E-2,-3.3512957E-2,2.6788594E-2],"split_indices":[8,13,4,0,0,0,0],"split_type":[0,0,0,0,0,0,0],"sum_hessian":[7.05E2,1.06E2,5.99E2,6E1,4.6E1,4.26E2,1.73E2],"tree_param":{"num_deleted":"0","num_feature":"21","num_nodes":"7","size_leaf_vector":"1"}},{"base_weights":[1.0740708E-1,-2.3391981E-1,1.4208229E0,-8.864781E-2,-1.080549E-3,1.8453309E-1,2.4272518E-2],"categories":[],"categories_nodes":[],"categories_segments":[],"categories_sizes":[],"default_left":[0,0,0,0,0,0,0],"id":37,"left_children":[1,3,5,-1,-1,-1,-1],"loss_changes":[3.3041385E2,2.3851382E2,3.7839978E2,0E0,0E0,0E0,0E0],"parents":[2147483647,0,0,1,1,2,2],"right_children":[2,4,6,-1,-1,-1,-1],"split_conditions":[3.9716442E0,2.4848E0,3.432887E-2,-8.864781E-2,-1.080549E-3,1.8453309E-1,2.4272518E-2],"split_indices":[11,20,2,0,0,0,0],"split_type":[0,0,0,0,0,0,0],"sum_hessian":[7.27E2,5.8E2,1.47E2,5E1,5.3E2,2.5E1,1.22E2],"tree_param":{"num_deleted":"0","num_feature":"21","num_nodes":"7","size_leaf_vector":"1"}},{"base_weights":[-9.552644E-2,-2.9943588E-1,2.218473E0,2.3692562E-3,-5.9278186E-2,1.3745658E-1,-6.157139E-3],"categories":[],"categories_nodes":[],"categories_segments":[],"categories_sizes":[],"default_left":[0,0,0,0,0,0,0],"id":38,"left_children":[1,3,5,-1,-1,-1,-1],"loss_changes":[3.4964084E2,2.899833E2,1.7765286E2,0E0,0E0,0E0,0E0],"parents":[2147483647,0,0,1,1,2,2],"right_children":[2,4,6,-1,-1,-1,-1],"split_conditions":[1.0033E1,3.5240417E0,2.7565983E1,2.3692562E-3,-5.9278186E-2,1.3745658E-1,-6.157139E-3],"split_indices":[4,19,14,0,0,0,0],"split_type":[0,0,0,0,0,0,0],"sum_hessian":[7.31E2,6.76E2,5.5E1,5.22E2,1.54E2,3.5E1,2E1],"tree_param":{"num_deleted":"0","num_feature":"21","num_nodes":"7","size_leaf_vector":"1"}},{"base_weights":[6.862916E-2,-1.0208601E0,4.8435375E-1,-5.8974393E-2,4.564221E-2,1.4799054E-1,1.0228715E-2],"categories":[],"categories_nodes":[],"categories_segments":[],"categories_sizes":[],"default_left":[0,0,0,0,0,0,0],"id":39,"left_children":[1,3,5,-1,-1,-1,-1],"loss_changes":[3.3465277E2,2.0858566E2,3.8660135E2,0E0,0E0,0E0,0E0],"parents":[2147483647,0,0,1,1,2,2],"right_children":[2,4,6,-1,-1,-1,-1],"split_conditions":[3.6434383E0,6.359375E0,4.4944E0,-5.8974393E-2,4.564221E-2,1.4799054E-1,1.0228715E-2],"split_indices":[10,18,4,0,0,0,0],"split_type":[0,0,0,0,0,0,0],"sum_hessian":[7.29E2,1.99E2,5.3E2,1.66E2,3.3E1,3E1,5E2],"tree_param":{"num_deleted":"0","num_feature":"21","num_nodes":"7","size_leaf_vector":"1"}},{"base_weights":[-9.609E-2,1.2626677E0,-3.3271E-1,1.1455194E-1,-3.919685E-2,-3.6639664E-2,7.577611E-3],"categories":[],"categories_nodes":[],"categories_segments":[],"categories_sizes":[],"default_left":[0,0,0,0,0,0,0],"id":40,"left_children":[1,3,5,-1,-1,-1,-1],"loss_changes":[2.3633728E2,4.0635736E2,1.9188586E2,0E0,0E0,0E0,0E0],"parents":[2147483647,0,0,1,1,2,2],"right_children":[2,4,6,-1,-1,-1,-1],"split_conditions":[-1.4969632E1,-3.4997513E1,9.494949E0,1.1455194E-1,-3.919685E-2,-3.6639664E-2,7.577611E-3],"split_indices":[8,13,3,0,0,0,0],"split_type":[0,0,0,0,0,0,0],"sum_hessian":[7.25E2,1.04E2,6.21E2,6E1,4.4E1,2.92E2,3.29E2],"tree_param":{"num_deleted":"0","num_feature":"21","num_nodes":"7","size_leaf_vector":"1"}},{"base_weights":[1.9026604E-1,1.1010863E-1,4.5012638E-2,-1.1905504E-2,4.2903148E-2],"categories":[],"categories_nodes":[],"categories_segments":[],"categories_sizes":[],"default_left":[0,0,0,0,0],"id":41,"left_children":[1,-1,3,-1,-1],"loss_changes":[2.704353E2,0E0,2.4774652E2,0E0,0E0],"parents":[2147483647,0,0,2,2],"right_children":[2,-1,4,-1,-1],"split_conditions":[4.3135E0,1.1010863E-1,7.704918E0,-1.1905504E-2,4.2903148E-2],"split_indices":[4,0,5,0,0],"split_type":[0,0,0,0,0],"sum_hessian":[7.27E2,3.4E1,6.93E2,5.22E2,1.71E2],"tree_param":{"num_deleted":"0","num_feature":"21","num_nodes":"5","size_leaf_vector":"1"}},{"base_weights":[6.973464E-2,2.6921657E-1,-1.6433265E0,-2.5858907E-2,2.615974E-2,-2.753815E-2,-1.235146E-1],"categories":[],"categories_nodes":[],"categories_segments":[],"categories_sizes":[],"default_left":[0,0,0,0,0,0,0],"id":42,"left_children":[1,3,5,-1,-1,-1,-1],"loss_changes":[2.5235094E2,2.3536423E2,9.3692566E1,0E0,0E0,0E0,0E0],"parents":[2147483647,0,0,1,1,2,2],"right_children":[2,4,6,-1,-1,-1,-1],"split_conditions":[4.349199E0,3.702383E0,7.7778E0,-2.5858907E-2,2.615974E-2,-2.753815E-2,-1.235146E-1],"split_indices":[19,10,4,0,0,0,0],"split_type":[0,0,0,0,0,0,0],"sum_hessian":[7.29E2,6.57E2,7.2E1,1.93E2,4.64E2,4.8E1,2.4E1],"tree_param":{"num_deleted":"0","num_feature":"21","num_nodes":"7","size_leaf_vector":"1"}},{"base_weights":[-4.2609787E-1,-2.3757681E-2,-1.2527694E0,-9.2240125E-3,1.3206635E-1,-6.746826E-2,3.7792188E-3],"categories":[],"categories_nodes":[],"categories_segments":[],"categories_sizes":[],"default_left":[0,0,0,0,0,0,0],"id":43,"left_children":[1,3,5,-1,-1,-1,-1],"loss_changes":[2.3136993E2,3.289943E2,1.3488669E2,0E0,0E0,0E0,0E0],"parents":[2147483647,0,0,1,1,2,2],"right_children":[2,4,6,-1,-1,-1,-1],"split_conditions":[3.2317717E0,4.711504E0,8.189655E0,-9.2240125E-3,1.3206635E-1,-6.746826E-2,3.7792188E-3],"split_indices":[19,11,0,0,0,0,0],"split_type":[0,0,0,0,0,0,0],"sum_hessian":[6.93E2,4.7E2,2.23E2,4.47E2,2.3E1,1.68E2,5.5E1],"tree_param":{"num_deleted":"0","num_feature":"21","num_nodes":"7","size_leaf_vector":"1"}},{"base_weights":[-2.4124322E-2,-2.8031677E-1,1.5294044E0,1.00170456E-1,-1.816014E-2,-2.55109E-3,1.9541667E-1],"categories":[],"categories_nodes":[],"categories_segments":[],"categories_sizes":[],"default_left":[0,0,0,0,0,0,0],"id":44,"left_children":[1,3,5,-1,-1,-1,-1],"loss_changes":[2.8688672E2,3.045191E2,5.49336E2,0E0,0E0,0E0,0E0],"parents":[2147483647,0,0,1,1,2,2],"right_children":[2,4,6,-1,-1,-1,-1],"split_conditions":[-2.7647111E0,4.3135E0,7.458234E0,1.00170456E-1,-1.816014E-2,-2.55109E-3,1.9541667E-1],"split_indices":[12,4,5,0,0,0,0],"split_type":[0,0,0,0,0,0,0],"sum_hessian":[7.12E2,6.15E2,9.7E1,3.2E1,5.83E2,6.9E1,2.8E1],"tree_param":{"num_deleted":"0","num_feature":"21","num_nodes":"7","size_leaf_vector":"1"}},{"base_weights":[1.1394104E-1,2.373671E0,-8.22147E-2,9.554883E-3,1.80968E-1,2.3710486E-2,-1.8352913E-2],"categories":[],"categories_nodes":[],"categories_segments":[],"categories_sizes":[],"default_left":[0,0,0,0,0,0,0],"id":45,"left_children":[1,3,5,-1,-1,-1,-1],"loss_changes":[3.1639215E2,2.5389893E2,1.6830347E2,0E0,0E0,0E0,0E0],"parents":[2147483647,0,0,1,1,2,2],"right_children":[2,4,6,-1,-1,-1,-1],"split_conditions":[-1.9365976E1,2.1866817E0,9.682625E-1,9.554883E-3,1.80968E-1,2.3710486E-2,-1.8352913E-2],"split_indices":[8,11,1,0,0,0,0],"split_type":[0,0,0,0,0,0,0],"sum_hessian":[7.04E2,5.2E1,6.52E2,2.9E1,2.3E1,2.32E2,4.2E2],"tree_param":{"num_deleted":"0","num_feature":"21","num_nodes":"7","size_leaf_vector":"1"}},{"base_weights":[1.155829E-1,-2.1664101E-1,1.0854754E0,6.2307096E-3,-7.256871E-2,6.4760074E-2,-4.1026767E-2],"categories":[],"categories_nodes":[],"categories_segments":[],"categories_sizes":[],"default_left":[0,0,0,0,0,0,0],"id":46,"left_children":[1,3,5,-1,-1,-1,-1],"loss_changes":[2.3876521E2,3.3065543E2,2.2147993E2,0E0,0E0,0E0,0E0],"parents":[2147483647,0,0,1,1,2,2],"right_children":[2,4,6,-1,-1,-1,-1],"split_conditions":[8.048038E0,1.9026295E0,3.468869E1,6.2307096E-3,-7.256871E-2,6.4760074E-2,-4.1026767E-2],"split_indices":[0,17,14,0,0,0,0],"split_type":[0,0,0,0,0,0,0],"sum_hessian":[7.31E2,5.47E2,1.84E2,4.47E2,1E2,1.48E2,3.6E1],"tree_param":{"num_deleted":"0","num_feature":"21","num_nodes":"7","size_leaf_vector":"1"}},{"base_weights":[8.846245E-2,9.4100434E-1,-3.473971E-1,2.0779133E-2,1.8241039E-1,7.934291E-2,-2.5142265E-2],"categories":[],"categories_nodes":[],"categories_segments":[],"categories_sizes":[],"default_left":[0,0,0,0,0,0,0],"id":47,"left_children":[1,3,5,-1,-1,-1,-1],"loss_changes":[2.7133298E2,3.6244104E2,3.221023E2,0E0,0E0,0E0,0E0],"parents":[2147483647,0,0,1,1,2,2],"right_children":[2,4,6,-1,-1,-1,-1],"split_conditions":[8.9734364E-1,7.763975E-1,-1.0534846E1,2.0779133E-2,1.8241039E-1,7.934291E-2,-2.5142265E-2],"split_indices":[1,1,7,0,0,0,0],"split_type":[0,0,0,0,0,0,0],"sum_hessian":[7.2E2,2.42E2,4.78E2,2.22E2,2E1,4.8E1,4.3E2],"tree_param":{"num_deleted":"0","num_feature":"21","num_nodes":"7","size_leaf_vector":"1"}},{"base_weights":[1.9180839E-1,-3.0853015E-1,1.1662127E0,-3.42481E-2,3.241783E-2,6.3769795E-2,-6.510696E-2],"categories":[],"categories_nodes":[],"categories_segments":[],"categories_sizes":[],"default_left":[0,0,0,0,0,0,0],"id":48,"left_children":[1,3,5,-1,-1,-1,-1],"loss_changes":[3.5373853E2,2.9765182E2,3.0714276E2,0E0,0E0,0E0,0E0],"parents":[2147483647,0,0,1,1,2,2],"right_children":[2,4,6,-1,-1,-1,-1],"split_conditions":[4.1822915E0,3.8474588E0,2.7833003E-1,-3.42481E-2,3.241783E-2,6.3769795E-2,-6.510696E-2],"split_indices":[18,11,7,0,0,0,0],"split_type":[0,0,0,0,0,0,0],"sum_hessian":[7.16E2,4.75E2,2.41E2,3.2E2,1.55E2,2.11E2,3E1],"tree_param":{"num_deleted":"0","num_feature":"21","num_nodes":"7","size_leaf_vector":"1"}},{"base_weights":[-1.4487997E-1,9.612898E-2,-2.926994E-1,-1.8272331E-2,8.599215E-2],"categories":[],"categories_nodes":[],"categories_segments":[],"categories_sizes":[],"default_left":[0,0,0,0,0],"id":49,"left_children":[1,-1,3,-1,-1],"loss_changes":[2.747866E2,0E0,2.7983917E2,0E0,0E0],"parents":[2147483647,0,0,2,2],"right_children":[2,-1,4,-1,-1],"split_conditions":[9.051733E-1,9.612898E-2,1.06508875E1,-1.8272331E-2,8.599215E-2],"split_indices":[17,0,0,0,0],"split_type":[0,0,0,0,0],"sum_hessian":[7.18E2,3.5E1,6.83E2,6.44E2,3.9E1],"tree_param":{"num_deleted":"0","num_feature":"21","num_nodes":"5","size_leaf_vector":"1"}},{"base_weights":[1.21274516E-1,6.733855E-1,-4.055517E-1,7.599924E-2,-5.5464916E-3,-1.6286077E-3,-1.04083546E-1],"categories":[],"categories_nodes":[],"categories_segments":[],"categories_sizes":[],"default_left":[0,0,0,0,0,0,0],"id":50,"left_children":[1,3,5,-1,-1,-1,-1],"loss_changes":[2.0859637E2,3.5081686E2,2.9225418E2,0E0,0E0,0E0,0E0],"parents":[2147483647,0,0,1,1,2,2],"right_children":[2,4,6,-1,-1,-1,-1],"split_conditions":[3.1621334E-1,2.6674511E0,7.357672E0,7.599924E-2,-5.5464916E-3,-1.6286077E-3,-1.04083546E-1],"split_indices":[15,16,9,0,0,0,0],"split_type":[0,0,0,0,0,0,0],"sum_hessian":[7.07E2,3.45E2,3.62E2,1.35E2,2.1E2,3.15E2,4.7E1],"tree_param":{"num_deleted":"0","num_feature":"21","num_nodes":"7","size_leaf_vector":"1"}},{"base_weights":[-2.5691353E-2,9.5259674E-2,-1.6612639E-1,-2.099156E-2,2.1274384E-2],"categories":[],"categories_nodes":[],"categories_segments":[],"categories_sizes":[],"default_left":[0,0,0,0,0],"id":51,"left_children":[1,-1,3,-1,-1],"loss_changes":[2.3311278E2,0E0,1.6511539E2,0E0,0E0],"parents":[2147483647,0,0,2,2],"right_children":[2,-1,4,-1,-1],"split_conditions":[4.3135E0,9.5259674E-2,4.1822915E0,-2.099156E-2,2.1274384E-2],"split_indices":[4,0,18,0,0],"split_type":[0,0,0,0,0],"sum_hessian":[6.82E2,3.3E1,6.49E2,4.3E2,2.19E2],"tree_param":{"num_deleted":"0","num_feature":"21","num_nodes":"5","size_leaf_vector":"1"}},{"base_weights":[-4.029087E-3,7.426087E-1,-4.6483496E-1,-3.5585705E-2,5.1372964E-2,6.516656E-2,-2.8180871E-2],"categories":[],"categories_nodes":[],"categories_segments":[],"categories_sizes":[],"default_left":[0,0,0,0,0,0,0],"id":52,"left_children":[1,3,5,-1,-1,-1,-1],"loss_changes":[2.472424E2,2.4818538E2,2.2862386E2,0E0,0E0,0E0,0E0],"parents":[2147483647,0,0,1,1,2,2],"right_children":[2,4,6,-1,-1,-1,-1],"split_conditions":[2.9432237E-1,-3.958032E1,-1.8402918E1,-3.5585705E-2,5.1372964E-2,6.516656E-2,-2.8180871E-2],"split_indices":[15,13,8,0,0,0,0],"split_type":[0,0,0,0,0,0,0],"sum_hessian":[7.09E2,2.69E2,4.4E2,6.6E1,2.03E2,4.2E1,3.98E2],"tree_param":{"num_deleted":"0","num_feature":"21","num_nodes":"7","size_leaf_vector":"1"}},{"base_weights":[-1.40304975E-2,3.1177843E-1,-1.5220019E0,1.6114971E-1,4.368561E-3,-1.6320401E-4,-9.810264E-2],"categories":[],"categories_nodes":[],"categories_segments":[],"categories_sizes":[],"default_left":[0,0,0,0,0,0,0],"id":53,"left_children":[1,3,5,-1,-1,-1,-1],"loss_changes":[3.6212576E2,4.5125046E2,1.837622E2,0E0,0E0,0E0,0E0],"parents":[2147483647,0,0,1,1,2,2],"right_children":[2,4,6,-1,-1,-1,-1],"split_conditions":[1.9222153E0,4.3135E0,1.4010508E0,1.6114971E-1,4.368561E-3,-1.6320401E-4,-9.810264E-2],"split_indices":[17,4,6,0,0,0,0],"split_type":[0,0,0,0,0,0,0],"sum_hessian":[7.26E2,6E2,1.26E2,2.6E1,5.74E2,5E1,7.6E1],"tree_param":{"num_deleted":"0","num_feature":"21","num_nodes":"7","size_leaf_vector":"1"}},{"base_weights":[-1.2446085E-2,1.3496383E0,-2.4500671E-1,1.1459178E-1,-3.1280745E-2,-2.9572327E-2,1.0195064E-2],"categories":[],"categories_nodes":[],"categories_segments":[],"categories_sizes":[],"default_left":[0,0,0,0,0,0,0],"id":54,"left_children":[1,3,5,-1,-1,-1,-1],"loss_changes":[2.2600577E2,3.4814148E2,1.5215822E2,0E0,0E0,0E0,0E0],"parents":[2147483647,0,0,1,1,2,2],"right_children":[2,4,6,-1,-1,-1,-1],"split_conditions":[-1.4969632E1,-3.4997513E1,5.6603775E0,1.1459178E-1,-3.1280745E-2,-2.9572327E-2,1.0195064E-2],"split_indices":[8,13,5,0,0,0,0],"split_type":[0,0,0,0,0,0,0],"sum_hessian":[7.05E2,9.9E1,6.06E2,5.7E1,4.2E1,3.04E2,3.02E2],"tree_param":{"num_deleted":"0","num_feature":"21","num_nodes":"7","size_leaf_vector":"1"}},{"base_weights":[1.5500881E-1,7.081838E-1,-3.69165E-1,-1.7064026E-2,6.177463E-2,-5.0657056E-2,1.2822081E-2],"categories":[],"categories_nodes":[],"categories_segments":[],"categories_sizes":[],"default_left":[0,0,0,0,0,0,0],"id":55,"left_children":[1,3,5,-1,-1,-1,-1],"loss_changes":[2.0995784E2,3.3786102E2,2.3271735E2,0E0,0E0,0E0,0E0],"parents":[2147483647,0,0,1,1,2,2],"right_children":[2,4,6,-1,-1,-1,-1],"split_conditions":[3.1621334E-1,2.668722E-1,2.610427E0,-1.7064026E-2,6.177463E-2,-5.0657056E-2,1.2822081E-2],"split_indices":[15,15,19,0,0,0,0],"split_type":[0,0,0,0,0,0,0],"sum_hessian":[7.14E2,3.47E2,3.67E2,1.48E2,1.99E2,1.58E2,2.09E2],"tree_param":{"num_deleted":"0","num_feature":"21","num_nodes":"7","size_leaf_vector":"1"}},{"base_weights":[-1.094086E-4,-2.670748E-1,1.0343888E0,4.684271E-2,-2.120089E-2,6.280203E-2,-5.484493E-2],"categories":[],"categories_nodes":[],"categories_segments":[],"categories_sizes":[],"default_left":[0,0,0,0,0,0,0],"id":56,"left_children":[1,3,5,-1,-1,-1,-1],"loss_changes":[2.0343405E2,2.2476047E2,2.0543294E2,0E0,0E0,0E0,0E0],"parents":[2147483647,0,0,1,1,2,2],"right_children":[2,4,6,-1,-1,-1,-1],"split_conditions":[9.6849E0,-1.4969632E1,7.6003127E0,4.684271E-2,-2.120089E-2,6.280203E-2,-5.484493E-2],"split_indices":[4,8,18,0,0,0,0],"split_type":[0,0,0,0,0,0,0],"sum_hessian":[7.28E2,5.82E2,1.46E2,8.7E1,4.95E2,1.21E2,2.5E1],"tree_param":{"num_deleted":"0","num_feature":"21","num_nodes":"7","size_leaf_vector":"1"}},{"base_weights":[-7.0449054E-2,-1.534726E-1,9.2190236E-2,9.788834E-4,-5.600276E-2],"categories":[],"categories_nodes":[],"categories_segments":[],"categories_sizes":[],"default_left":[0,0,0,0,0],"id":57,"left_children":[1,3,-1,-1,-1],"loss_changes":[1.4602785E2,1.5990778E2,0E0,0E0,0E0],"parents":[2147483647,0,0,1,1],"right_children":[2,4,-1,-1,-1],"split_conditions":[1.1521324E1,3.9735794E0,9.2190236E-2,9.788834E-4,-5.600276E-2],"split_indices":[0,16,0,0,0],"split_type":[0,0,0,0,0],"sum_hessian":[7.32E2,7.12E2,2E1,6.27E2,8.5E1],"tree_param":{"num_deleted":"0","num_feature":"21","num_nodes":"5","size_leaf_vector":"1"}},{"base_weights":[-2.372839E-1,3.690759E-1,-7.3182607E-1,-7.1640005E-3,1.2501445E-1,1.803369E-2,-4.4068504E-2],"categories":[],"categories_nodes":[],"categories_segments":[],"categories_sizes":[],"default_left":[0,0,0,0,0,0,0],"id":58,"left_children":[1,3,5,-1,-1,-1,-1],"loss_changes":[2.1923784E2,5.013677E2,1.7866504E2,0E0,0E0,0E0,0E0],"parents":[2147483647,0,0,1,1,2,2],"right_children":[2,4,6,-1,-1,-1,-1],"split_conditions":[2.7674186E0,6.6364794E0,3.432887E-2,-7.1640005E-3,1.2501445E-1,1.803369E-2,-4.4068504E-2],"split_indices":[19,10,2,0,0,0,0],"split_type":[0,0,0,0,0,0,0],"sum_hessian":[7.21E2,3.24E2,3.97E2,2.74E2,5E1,9.4E1,3.03E2],"tree_param":{"num_deleted":"0","num_feature":"21","num_nodes":"7","size_leaf_vector":"1"}},{"base_weights":[4.2062122E-2,6.807485E-1,-5.1137555E-1,5.9706448E-3,1.3659698E-1,1.6477782E-2,-5.6387447E-2],"categories":[],"categories_nodes":[],"categories_segments":[],"categories_sizes":[],"default_left":[0,0,0,0,0,0,0],"id":59,"left_children":[1,3,5,-1,-1,-1,-1],"loss_changes":[2.4960994E2,4.723078E2,3.169263E2,0E0,0E0,0E0,0E0],"parents":[2147483647,0,0,1,1,2,2],"right_children":[2,4,6,-1,-1,-1,-1],"split_conditions":[2.7674186E0,6.6364794E0,2.6054003E0,5.9706448E-3,1.3659698E-1,1.6477782E-2,-5.6387447E-2],"split_indices":[19,10,6,0,0,0,0],"split_type":[0,0,0,0,0,0,0],"sum_hessian":[6.96E2,3.23E2,3.73E2,2.75E2,4.8E1,1.85E2,1.88E2],"tree_param":{"num_deleted":"0","num_feature":"21","num_nodes":"7","size_leaf_vector":"1"}},{"base_weights":[8.8929854E-2,1.0215976E0,-1.71216E-1,-1.5689401E-2,1.4577602E-1,2.1099385E-2,-3.3804357E-2],"categories":[],"categories_nodes":[],"categories_segments":[],"categories_sizes":[],"default_left":[0,0,0,0,0,0,0],"id":60,"left_children":[1,3,5,-1,-1,-1,-1],"loss_changes":[1.7914728E2,6.0579425E2,2.7406784E2,0E0,0E0,0E0,0E0],"parents":[2147483647,0,0,1,1,2,2],"right_children":[2,4,6,-1,-1,-1,-1],"split_conditions":[3.432887E-2,1.6782458E0,1.3720568E0,-1.5689401E-2,1.4577602E-1,2.1099385E-2,-3.3804357E-2],"split_indices":[2,17,17,0,0,0,0],"split_type":[0,0,0,0,0,0,0],"sum_hessian":[7.28E2,1.56E2,5.72E2,1.04E2,5.2E1,2.81E2,2.91E2],"tree_param":{"num_deleted":"0","num_feature":"21","num_nodes":"7","size_leaf_vector":"1"}},{"base_weights":[-3.713258E-3,-2.2941028E-1,1.2905674E0,-1.4405558E-2,1.1027935E-1,3.4095782E-3,2.0635128E-1],"categories":[],"categories_nodes":[],"categories_segments":[],"categories_sizes":[],"default_left":[0,0,0,0,0,0,0],"id":61,"left_children":[1,3,5,-1,-1,-1,-1],"loss_changes":[2.0864374E2,2.4191455E2,4.8940088E2,0E0,0E0,0E0,0E0],"parents":[2147483647,0,0,1,1,2,2],"right_children":[2,4,6,-1,-1,-1,-1],"split_conditions":[-2.7647111E0,1.1406844E1,6.736658E0,-1.4405558E-2,1.1027935E-1,3.4095782E-3,2.0635128E-1],"split_indices":[12,0,10,0,0,0,0],"split_type":[0,0,0,0,0,0,0],"sum_hessian":[7.06E2,6.05E2,1.01E2,5.84E2,2.1E1,8.1E1,2E1],"tree_param":{"num_deleted":"0","num_feature":"21","num_nodes":"7","size_leaf_vector":"1"}},{"base_weights":[2.2472298E-1,7.9960644E-1,-3.087885E-1,1.0561565E-2,1.1393401E-1,-2.9370992E-2,2.8081486E-2],"categories":[],"categories_nodes":[],"categories_segments":[],"categories_sizes":[],"default_left":[0,0,0,0,0,0,0],"id":62,"left_children":[1,3,5,-1,-1,-1,-1],"loss_changes":[2.207754E2,3.7432855E2,1.6344815E2,0E0,0E0,0E0,0E0],"parents":[2147483647,0,0,1,1,2,2],"right_children":[2,4,6,-1,-1,-1,-1],"split_conditions":[3.1621334E-1,4.0447392E0,3.7282446E-1,1.0561565E-2,1.1393401E-1,-2.9370992E-2,2.8081486E-2],"split_indices":[15,11,15,0,0,0,0],"split_type":[0,0,0,0,0,0,0],"sum_hessian":[7.1E2,3.41E2,3.69E2,2.75E2,6.6E1,2.61E2,1.08E2],"tree_param":{"num_deleted":"0","num_feature":"21","num_nodes":"7","size_leaf_vector":"1"}},{"base_weights":[-5.7154443E-2,8.713627E-2,-1.9718839E-1,-1.8631548E-2,2.9842725E-2],"categories":[],"categories_nodes":[],"categories_segments":[],"categories_sizes":[],"default_left":[0,0,0,0,0],"id":63,"left_children":[1,-1,3,-1,-1],"loss_changes":[2.284347E2,0E0,1.759084E2,0E0,0E0],"parents":[2147483647,0,0,2,2],"right_children":[2,-1,4,-1,-1],"split_conditions":[4.3135E0,8.713627E-2,9.6849E0,-1.8631548E-2,2.9842725E-2],"split_indices":[4,0,4,0,0],"split_type":[0,0,0,0,0],"sum_hessian":[7.21E2,3.8E1,6.83E2,5.34E2,1.49E2],"tree_param":{"num_deleted":"0","num_feature":"21","num_nodes":"5","size_leaf_vector":"1"}},{"base_weights":[4.8055835E-2,6.472964E-1,-4.564692E-1,2.7642082E-3,1.3055897E-1,-9.209331E-2,-3.3354922E-3],"categories":[],"categories_nodes":[],"categories_segments":[],"categories_sizes":[],"default_left":[0,0,0,0,0,0,0],"id":64,"left_children":[1,3,5,-1,-1,-1,-1],"loss_changes":[2.2015874E2,5.0101477E2,2.6986728E2,0E0,0E0,0E0,0E0],"parents":[2147483647,0,0,1,1,2,2],"right_children":[2,4,6,-1,-1,-1,-1],"split_conditions":[2.7674186E0,6.6364794E0,-3.951389E1,2.7642082E-3,1.3055897E-1,-9.209331E-2,-3.3354922E-3],"split_indices":[19,10,13,0,0,0,0],"split_type":[0,0,0,0,0,0,0],"sum_hessian":[7.18E2,3.28E2,3.9E2,2.73E2,5.5E1,6.1E1,3.29E2],"tree_param":{"num_deleted":"0","num_feature":"21","num_nodes":"7","size_leaf_vector":"1"}},{"base_weights":[1.20289765E-1,-1.0474411E0,3.516664E-1,1.1779087E-2,-5.4593503E-2,3.3812467E-2,-2.0607822E-2],"categories":[],"categories_nodes":[],"categories_segments":[],"categories_sizes":[],"default_left":[0,0,0,0,0,0,0],"id":65,"left_children":[1,3,5,-1,-1,-1,-1],"loss_changes":[1.8954306E2,5.1951492E1,2.5267714E2,0E0,0E0,0E0,0E0],"parents":[2147483647,0,0,1,1,2,2],"right_children":[2,4,6,-1,-1,-1,-1],"split_conditions":[9.556314E0,-1.3160163E1,7.8629084E0,1.1779087E-2,-5.4593503E-2,3.3812467E-2,-2.0607822E-2],"split_indices":[14,12,8,0,0,0,0],"split_type":[0,0,0,0,0,0,0],"sum_hessian":[6.91E2,1.11E2,5.8E2,2.1E1,9E1,3.7E2,2.1E2],"tree_param":{"num_deleted":"0","num_feature":"21","num_nodes":"7","size_leaf_vector":"1"}},{"base_weights":[1.7059678E-1,5.5630255E-1,-4.8512495E-1,4.899557E-2,-6.339721E-3,-4.201705E-2,1.4596612E-2],"categories":[],"categories_nodes":[],"categories_segments":[],"categories_sizes":[],"default_left":[0,0,0,0,0,0,0],"id":66,"left_children":[1,3,5,-1,-1,-1,-1],"loss_changes":[1.8221964E2,2.1799387E2,1.3056055E2,0E0,0E0,0E0,0E0],"parents":[2147483647,0,0,1,1,2,2],"right_children":[2,4,6,-1,-1,-1,-1],"split_conditions":[3.388057E-1,2.4663677E0,3.7282446E-1,4.899557E-2,-6.339721E-3,-4.201705E-2,1.4596612E-2],"split_indices":[15,6,15,0,0,0,0],"split_type":[0,0,0,0,0,0,0],"sum_hessian":[7.1E2,4.48E2,2.62E2,2.3E2,2.18E2,1.57E2,1.05E2],"tree_param":{"num_deleted":"0","num_feature":"21","num_nodes":"7","size_leaf_vector":"1"}},{"base_weights":[-7.905201E-2,-4.0171358E-1,9.5284885E-1,1.6861804E-2,-3.418187E-2,-1.8815363E-3,1.100634E-1],"categories":[],"categories_nodes":[],"categories_segments":[],"categories_sizes":[],"default_left":[0,0,0,0,0,0,0],"id":67,"left_children":[1,3,5,-1,-1,-1,-1],"loss_changes":[2.377032E2,2.0482024E2,3.077501E2,0E0,0E0,0E0,0E0],"parents":[2147483647,0,0,1,1,2,2],"right_children":[2,4,6,-1,-1,-1,-1],"split_conditions":[-4.3581944E0,5.461994E-1,-2.8675703E1,1.6861804E-2,-3.418187E-2,-1.8815363E-3,1.100634E-1],"split_indices":[12,6,13,0,0,0,0],"split_type":[0,0,0,0,0,0,0],"sum_hessian":[7.04E2,5.39E2,1.65E2,1.91E2,3.48E2,1.09E2,5.6E1],"tree_param":{"num_deleted":"0","num_feature":"21","num_nodes":"7","size_leaf_vector":"1"}},{"base_weights":[4.6015557E-2,-2.9031485E-1,9.238762E-1,6.373649E-3,-5.626239E-2,2.0066935E-1,9.590617E-3],"categories":[],"categories_nodes":[],"categories_segments":[],"categories_sizes":[],"default_left":[0,0,0,0,0,0,0],"id":68,"left_children":[1,3,5,-1,-1,-1,-1],"loss_changes":[2.1099098E2,2.6073822E2,5.4575116E2,0E0,0E0,0E0,0E0],"parents":[2147483647,0,0,1,1,2,2],"right_children":[2,4,6,-1,-1,-1,-1],"split_conditions":[7.458234E0,8.8316E0,4.702075E0,6.373649E-3,-5.626239E-2,2.0066935E-1,9.590617E-3],"split_indices":[5,20,9,0,0,0,0],"split_type":[0,0,0,0,0,0,0],"sum_hessian":[7.04E2,5.11E2,1.93E2,3.67E2,1.44E2,2.3E1,1.7E2],"tree_param":{"num_deleted":"0","num_feature":"21","num_nodes":"7","size_leaf_vector":"1"}},{"base_weights":[1.6380475E-1,1.6760311E0,-7.690385E-2,1.2173222E-1,-1.9895805E-2,-7.8108064E-3,1.0109048E-1],"categories":[],"categories_nodes":[],"categories_segments":[],"categories_sizes":[],"default_left":[0,0,0,0,0,0,0],"id":69,"left_children":[1,3,5,-1,-1,-1,-1],"loss_changes":[2.598882E2,3.0006528E2,1.91489E2,0E0,0E0,0E0,0E0],"parents":[2147483647,0,0,1,1,2,2],"right_children":[2,4,6,-1,-1,-1,-1],"split_conditions":[-1.4969632E1,-3.476235E1,1.1406844E1,1.2173222E-1,-1.9895805E-2,-7.8108064E-3,1.0109048E-1],"split_indices":[8,13,0,0,0,0,0],"split_type":[0,0,0,0,0,0,0],"sum_hessian":[7.05E2,9.3E1,6.12E2,5.6E1,3.7E1,5.9E2,2.2E1],"tree_param":{"num_deleted":"0","num_feature":"21","num_nodes":"7","size_leaf_vector":"1"}},{"base_weights":[4.222617E-2,-5.347876E-2,1.0673758E-1,5.055378E-3,-6.787314E-2],"categories":[],"categories_nodes":[],"categories_segments":[],"categories_sizes":[],"default_left":[0,0,0,0,0],"id":70,"left_children":[1,3,-1,-1,-1],"loss_changes":[1.7871413E2,2.0373738E2,0E0,0E0,0E0],"parents":[2147483647,0,0,1,1],"right_children":[2,4,-1,-1,-1],"split_conditions":[1.7554241E1,4.2970576E0,1.0673758E-1,5.055378E-3,-6.787314E-2],"split_indices":[3,19,0,0,0],"split_type":[0,0,0,0,0],"sum_hessian":[6.98E2,6.78E2,2E1,6.15E2,6.3E1],"tree_param":{"num_deleted":"0","num_feature":"21","num_nodes":"5","size_leaf_vector":"1"}},{"base_weights":[3.5817984E-2,1.8713558E0,-1.3877037E-1,-1.256362E-2,1.8396227E-1,-1.5774334E-2,4.5731712E-2],"categories":[],"categories_nodes":[],"categories_segments":[],"categories_sizes":[],"default_left":[0,0,0,0,0,0,0],"id":71,"left_children":[1,3,5,-1,-1,-1,-1],"loss_changes":[2.2873245E2,3.789622E2,2.1487178E2,0E0,0E0,0E0,0E0],"parents":[2147483647,0,0,1,1,2,2],"right_children":[2,4,6,-1,-1,-1,-1],"split_conditions":[-1.8402918E1,3.1561086E0,-2.8503406E0,-1.256362E-2,1.8396227E-1,-1.5774334E-2,4.5731712E-2],"split_indices":[8,18,12,0,0,0,0],"split_type":[0,0,0,0,0,0,0],"sum_hessian":[7.02E2,5.7E1,6.45E2,3.4E1,2.3E1,5.41E2,1.04E2],"tree_param":{"num_deleted":"0","num_feature":"21","num_nodes":"7","size_leaf_vector":"1"}},{"base_weights":[-1.7567617E-1,-4.852058E-1,1.0693213E0,-1.9792065E-3,-5.977233E-2,5.2219E-3,1.640095E-1],"categories":[],"categories_nodes":[],"categories_segments":[],"categories_sizes":[],"default_left":[0,0,0,0,0,0,0],"id":72,"left_children":[1,3,5,-1,-1,-1,-1],"loss_changes":[2.8053467E2,2.547591E2,4.0778317E2,0E0,0E0,0E0,0E0],"parents":[2147483647,0,0,1,1,2,2],"right_children":[2,4,6,-1,-1,-1,-1],"split_conditions":[3.9716442E0,2.8804047E0,-2.5376411E1,-1.9792065E-3,-5.977233E-2,5.2219E-3,1.640095E-1],"split_indices":[11,11,13,0,0,0,0],"split_type":[0,0,0,0,0,0,0],"sum_hessian":[7.17E2,5.77E2,1.4E2,4.07E2,1.7E2,1.11E2,2.9E1],"tree_param":{"num_deleted":"0","num_feature":"21","num_nodes":"7","size_leaf_vector":"1"}},{"base_weights":[-1.3724835E-1,-2.2896233E-1,8.894568E-2,6.9534394E-4,-5.7374027E-2],"categories":[],"categories_nodes":[],"categories_segments":[],"categories_sizes":[],"default_left":[0,0,0,0,0],"id":73,"left_children":[1,3,-1,-1,-1],"loss_changes":[1.563649E2,2.0661432E2,0E0,0E0,0E0],"parents":[2147483647,0,0,1,1],"right_children":[2,4,-1,-1,-1],"split_conditions":[1.1406844E1,1.9222153E0,8.894568E-2,6.9534394E-4,-5.7374027E-2],"split_indices":[0,17,0,0,0],"split_type":[0,0,0,0,0],"sum_hessian":[7.1E2,6.88E2,2.2E1,5.75E2,1.13E2],"tree_param":{"num_deleted":"0","num_feature":"21","num_nodes":"5","size_leaf_vector":"1"}},{"base_weights":[-1.2850673E-1,6.055986E-1,-5.748918E-1,1.1658085E-2,1.4524303E-1,4.652703E-2,-3.258732E-2],"categories":[],"categories_nodes":[],"categories_segments":[],"categories_sizes":[],"default_left":[0,0,0,0,0,0,0],"id":74,"left_children":[1,3,5,-1,-1,-1,-1],"loss_changes":[2.356987E2,2.5126785E2,1.9086157E2,0E0,0E0,0E0,0E0],"parents":[2147483647,0,0,1,1,2,2],"right_children":[2,4,6,-1,-1,-1,-1],"split_conditions":[2.9476124E-1,8.14005E0,1.1091834E0,1.1658085E-2,1.4524303E-1,4.652703E-2,-3.258732E-2],"split_indices":[15,9,17,0,0,0,0],"split_type":[0,0,0,0,0,0,0],"sum_hessian":[7.09E2,2.67E2,4.42E2,2.47E2,2E1,5.1E1,3.91E2],"tree_param":{"num_deleted":"0","num_feature":"21","num_nodes":"7","size_leaf_vector":"1"}},{"base_weights":[-4.1256174E-2,-3.4282303E-1,9.336218E-1,4.10594E-3,-5.5568524E-2,9.21916E-2,-5.3023025E-2],"categories":[],"categories_nodes":[],"categories_segments":[],"categories_sizes":[],"default_left":[0,0,0,0,0,0,0],"id":75,"left_children":[1,3,5,-1,-1,-1,-1],"loss_changes":[2.1415436E2,2.6099457E2,5.4857666E2,0E0,0E0,0E0,0E0],"parents":[2147483647,0,0,1,1,2,2],"right_children":[2,4,6,-1,-1,-1,-1],"split_conditions":[3.8961039E0,2.842658E0,3.5240417E0,4.10594E-3,-5.5568524E-2,9.21916E-2,-5.3023025E-2],"split_indices":[11,11,19,0,0,0,0],"split_type":[0,0,0,0,0,0,0],"sum_hessian":[7.19E2,5.52E2,1.67E2,3.9E2,1.62E2,1.04E2,6.3E1],"tree_param":{"num_deleted":"0","num_feature":"21","num_nodes":"7","size_leaf_vector":"1"}},{"base_weights":[-4.9325105E-2,5.8764584E-2,-9.255777E-2,-2.1103858E-3,1.2580322E-1],"categories":[],"categories_nodes":[],"categories_segments":[],"categories_sizes":[],"default_left":[0,0,0,0,0],"id":76,"left_children":[1,3,-1,-1,-1],"loss_changes":[1.8270135E2,2.4675711E2,0E0,0E0,0E0],"parents":[2147483647,0,0,1,1],"right_children":[2,4,-1,-1,-1],"split_conditions":[3.1957546E1,1.1521324E1,-9.255777E-2,-2.1103858E-3,1.2580322E-1],"split_indices":[8,0,0,0,0],"split_type":[0,0,0,0,0],"sum_hessian":[7.34E2,7.05E2,2.9E1,6.85E2,2E1],"tree_param":{"num_deleted":"0","num_feature":"21","num_nodes":"5","size_leaf_vector":"1"}},{"base_weights":[1.1717291E-2,-1.2234489E0,2.5403962E-1,-1.5355996E-2,-7.9172015E-2,8.1486136E-2,-7.007907E-4],"categories":[],"categories_nodes":[],"categories_segments":[],"categories_sizes":[],"default_left":[0,0,0,0,0,0,0],"id":77,"left_children":[1,3,5,-1,-1,-1,-1],"loss_changes":[2.0998653E2,6.799519E1,2.859104E2,0E0,0E0,0E0,0E0],"parents":[2147483647,0,0,1,1,2,2],"right_children":[2,4,6,-1,-1,-1,-1],"split_conditions":[9.556314E0,1.5811965E0,-1.4969632E1,-1.5355996E-2,-7.9172015E-2,8.1486136E-2,-7.007907E-4],"split_indices":[14,6,8,0,0,0,0],"split_type":[0,0,0,0,0,0,0],"sum_hessian":[6.93E2,1.1E2,5.83E2,5.6E1,5.4E1,7.3E1,5.1E2],"tree_param":{"num_deleted":"0","num_feature":"21","num_nodes":"7","size_leaf_vector":"1"}},{"base_weights":[1.6358298E-1,-5.0358653E-2,1.4441159E0,4.4396827E-3,-5.9948448E-2,-0E0,1.837369E-1],"categories":[],"categories_nodes":[],"categories_segments":[],"categories_sizes":[],"default_left":[0,0,0,0,0,0,0],"id":78,"left_children":[1,3,5,-1,-1,-1,-1],"loss_changes":[1.9529764E2,1.4454552E2,4.6246704E2,0E0,0E0,0E0,0E0],"parents":[2147483647,0,0,1,1,2,2],"right_children":[2,4,6,-1,-1,-1,-1],"split_conditions":[-2.7647111E0,3.2424244E1,7.458234E0,4.4396827E-3,-5.9948448E-2,-0E0,1.837369E-1],"split_indices":[12,14,5,0,0,0,0],"split_type":[0,0,0,0,0,0,0],"sum_hessian":[7.04E2,6.07E2,9.7E1,5.5E2,5.7E1,7E1,2.7E1],"tree_param":{"num_deleted":"0","num_feature":"21","num_nodes":"7","size_leaf_vector":"1"}},{"base_weights":[1.3244565E-1,-5.016368E-2,1.3111448E0,6.232725E-2,-9.399253E-3,1.305396E-1,-3.361634E-2],"categories":[],"categories_nodes":[],"categories_segments":[],"categories_sizes":[],"default_left":[0,0,0,0,0,0,0],"id":79,"left_children":[1,3,5,-1,-1,-1,-1],"loss_changes":[1.5571796E2,1.8754521E2,4.2238065E2,0E0,0E0,0E0,0E0],"parents":[2147483647,0,0,1,1,2,2],"right_children":[2,4,6,-1,-1,-1,-1],"split_conditions":[-2.6495364E0,4.8395E0,7.1588E0,6.232725E-2,-9.399253E-3,1.305396E-1,-3.361634E-2],"split_indices":[12,4,20,0,0,0,0],"split_type":[0,0,0,0,0,0,0],"sum_hessian":[7.14E2,6.22E2,9.2E1,6E1,5.62E2,4.7E1,4.5E1],"tree_param":{"num_deleted":"0","num_feature":"21","num_nodes":"7","size_leaf_vector":"1"}},{"base_weights":[-1.2200812E-1,8.0441505E-1,-3.7670296E-1,9.023684E-2,-1.4033289E-2,-3.68173E-2,1.0515554E-2],"categories":[],"categories_nodes":[],"categories_segments":[],"categories_sizes":[],"default_left":[0,0,0,0,0,0,0],"id":80,"left_children":[1,3,5,-1,-1,-1,-1],"loss_changes":[1.707171E2,2.6649814E2,1.9872137E2,0E0,0E0,0E0,0E0],"parents":[2147483647,0,0,1,1,2,2],"right_children":[2,4,6,-1,-1,-1,-1],"split_conditions":[1.1209404E0,9.100455E-1,1.0081301E1,9.023684E-2,-1.4033289E-2,-3.68173E-2,1.0515554E-2],"split_indices":[17,1,3,0,0,0,0],"split_type":[0,0,0,0,0,0,0],"sum_hessian":[7.13E2,1.51E2,5.62E2,6.5E1,8.6E1,3.03E2,2.59E2],"tree_param":{"num_deleted":"0","num_feature":"21","num_nodes":"7","size_leaf_vector":"1"}},{"base_weights":[-2.1371353E-2,1.5532149E0,-2.1479501E-1,-3.769539E-2,1.2546273E-1,3.918922E-3,-4.877137E-2],"categories":[],"categories_nodes":[],"categories_segments":[],"categories_sizes":[],"default_left":[0,0,0,0,0,0,0],"id":81,"left_children":[1,3,5,-1,-1,-1,-1],"loss_changes":[2.1723808E2,3.240868E2,2.0128561E2,0E0,0E0,0E0,0E0],"parents":[2147483647,0,0,1,1,2,2],"right_children":[2,4,6,-1,-1,-1,-1],"split_conditions":[-1.0349854E1,6.755E0,1.1897425E1,-3.769539E-2,1.2546273E-1,3.918922E-3,-4.877137E-2],"split_indices":[7,4,8,0,0,0,0],"split_type":[0,0,0,0,0,0,0],"sum_hessian":[7.05E2,7.3E1,6.32E2,2.9E1,4.4E1,4.85E2,1.47E2],"tree_param":{"num_deleted":"0","num_feature":"21","num_nodes":"7","size_leaf_vector":"1"}},{"base_weights":[9.5720895E-2,1.3618659E0,-1.13898255E-1,-5.4185383E-2,8.452497E-2,-3.0502008E-2,1.9390544E-2],"categories":[],"categories_nodes":[],"categories_segments":[],"categories_sizes":[],"default_left":[0,0,0,0,0,0,0],"id":82,"left_children":[1,3,5,-1,-1,-1,-1],"loss_changes":[1.9063564E2,2.2285277E2,2.4119424E2,0E0,0E0,0E0,0E0],"parents":[2147483647,0,0,1,1,2,2],"right_children":[2,4,6,-1,-1,-1,-1],"split_conditions":[-1.5192743E1,2.9272E0,9.631147E0,-5.4185383E-2,8.452497E-2,-3.0502008E-2,1.9390544E-2],"split_indices":[8,20,3,0,0,0,0],"split_type":[0,0,0,0,0,0,0],"sum_hessian":[7.08E2,9.7E1,6.11E2,2E1,7.7E1,2.93E2,3.18E2],"tree_param":{"num_deleted":"0","num_feature":"21","num_nodes":"7","size_leaf_vector":"1"}},{"base_weights":[9.2698984E-2,3.9651305E-3,9.764867E-2,4.2050015E-3,-1.0897324E-1],"categories":[],"categories_nodes":[],"categories_segments":[],"categories_sizes":[],"default_left":[0,0,0,0,0],"id":83,"left_children":[1,3,-1,-1,-1],"loss_changes":[1.4877202E2,1.9304233E2,0E0,0E0,0E0],"parents":[2147483647,0,0,1,1],"right_children":[2,4,-1,-1,-1],"split_conditions":[1.7554241E1,1.03545E1,9.764867E-2,4.2050015E-3,-1.0897324E-1],"split_indices":[3,4,0,0,0],"split_type":[0,0,0,0,0],"sum_hessian":[7.15E2,6.94E2,2.1E1,6.74E2,2E1],"tree_param":{"num_deleted":"0","num_feature":"21","num_nodes":"5","size_leaf_vector":"1"}},{"base_weights":[8.638392E-2,-1.7470309E0,2.2063999E-1,-1.7779198E-2,-1.0637186E-1,2.7487278E-2,-1.8630248E-2],"categories":[],"categories_nodes":[],"categories_segments":[],"categories_sizes":[],"default_left":[0,0,0,0,0,0,0],"id":84,"left_children":[1,3,5,-1,-1,-1,-1],"loss_changes":[1.7322093E2,4.9575165E1,2.117836E2,0E0,0E0,0E0,0E0],"parents":[2147483647,0,0,1,1,2,2],"right_children":[2,4,6,-1,-1,-1,-1],"split_conditions":[2.2662598E-1,1.5923567E0,3.388057E-1,-1.7779198E-2,-1.0637186E-1,2.7487278E-2,-1.8630248E-2],"split_indices":[15,1,15,0,0,0,0],"split_type":[0,0,0,0,0,0,0],"sum_hessian":[6.94E2,4.3E1,6.51E2,2.1E1,2.2E1,3.88E2,2.63E2],"tree_param":{"num_deleted":"0","num_feature":"21","num_nodes":"7","size_leaf_vector":"1"}},{"base_weights":[-2.2308831E-1,1.3570158E0,-3.6755273E-1,-2.2125596E-2,1.4626732E-1,7.87285E-5,-4.5261644E-2],"categories":[],"categories_nodes":[],"categories_segments":[],"categories_sizes":[],"default_left":[0,0,0,0,0,0,0],"id":85,"left_children":[1,3,5,-1,-1,-1,-1],"loss_changes":[1.6338522E2,2.752284E2,1.8464188E2,0E0,0E0,0E0,0E0],"parents":[2147483647,0,0,1,1,2,2],"right_children":[2,4,6,-1,-1,-1,-1],"split_conditions":[-1.9588224E1,2.3040218E0,8.8316E0,-2.2125596E-2,1.4626732E-1,7.87285E-5,-4.5261644E-2],"split_indices":[8,11,20,0,0,0,0],"split_type":[0,0,0,0,0,0,0],"sum_hessian":[7.02E2,5.5E1,6.47E2,3.2E1,2.3E1,4.39E2,2.08E2],"tree_param":{"num_deleted":"0","num_feature":"21","num_nodes":"7","size_leaf_vector":"1"}},{"base_weights":[-2.274488E-2,1.4743428E0,-2.6764333E-1,1.21547714E-1,-3.5445753E-2,-2.4822528E-2,2.052316E-2],"categories":[],"categories_nodes":[],"categories_segments":[],"categories_sizes":[],"default_left":[0,0,0,0,0,0,0],"id":86,"left_children":[1,3,5,-1,-1,-1,-1],"loss_changes":[2.6351328E2,3.8749524E2,1.7220033E2,0E0,0E0,0E0,0E0],"parents":[2147483647,0,0,1,1,2,2],"right_children":[2,4,6,-1,-1,-1,-1],"split_conditions":[-1.4969632E1,-3.476235E1,-2.7307798E1,1.21547714E-1,-3.5445753E-2,-2.4822528E-2,2.052316E-2],"split_indices":[8,13,13,0,0,0,0],"split_type":[0,0,0,0,0,0,0],"sum_hessian":[7.1E2,9.6E1,6.14E2,5.7E1,3.9E1,4.24E2,1.9E2],"tree_param":{"num_deleted":"0","num_feature":"21","num_nodes":"7","size_leaf_vector":"1"}},{"base_weights":[7.700173E-2,-5.122297E-1,5.1597935E-1,-5.147981E-2,5.6997775E-3,1.430337E-1,1.0807485E-2],"categories":[],"categories_nodes":[],"categories_segments":[],"categories_sizes":[],"default_left":[0,0,0,0,0,0,0],"id":87,"left_children":[1,3,5,-1,-1,-1,-1],"loss_changes":[1.8548886E2,1.5671008E2,3.0235544E2,0E0,0E0,0E0,0E0],"parents":[2147483647,0,0,1,1,2,2],"right_children":[2,4,6,-1,-1,-1,-1],"split_conditions":[4.9165936E0,4.299226E-1,4.4944E0,-5.147981E-2,5.6997775E-3,1.430337E-1,1.0807485E-2],"split_indices":[5,2,4,0,0,0,0],"split_type":[0,0,0,0,0,0,0],"sum_hessian":[7.07E2,3.01E2,4.06E2,1.36E2,1.65E2,2.5E1,3.81E2],"tree_param":{"num_deleted":"0","num_feature":"21","num_nodes":"7","size_leaf_vector":"1"}},{"base_weights":[5.890691E-3,-5.929986E-1,5.728377E-1,1.2802581E-2,-6.995891E-2,-3.1881563E-2,4.034858E-2],"categories":[],"categories_nodes":[],"categories_segments":[],"categories_sizes":[],"default_left":[0,0,0,0,0,0,0],"id":88,"left_children":[1,3,5,-1,-1,-1,-1],"loss_changes":[2.5023058E2,3.8137433E2,2.3042569E2,0E0,0E0,0E0,0E0],"parents":[2147483647,0,0,1,1,2,2],"right_children":[2,4,6,-1,-1,-1,-1],"split_conditions":[-8.193072E0,2.0999277E0,4.1376104E0,1.2802581E-2,-6.995891E-2,-3.1881563E-2,4.034858E-2],"split_indices":[12,1,9,0,0,0,0],"split_type":[0,0,0,0,0,0,0],"sum_hessian":[7.27E2,3.53E2,3.74E2,1.99E2,1.54E2,8.9E1,2.85E2],"tree_param":{"num_deleted":"0","num_feature":"21","num_nodes":"7","size_leaf_vector":"1"}},{"base_weights":[1.4067352E-1,4.1797414E-1,-7.050671E-1,5.4909037E-3,7.789459E-2,-4.11175E-2,5.670972E-2],"categories":[],"categories_nodes":[],"categories_segments":[],"categories_sizes":[],"default_left":[0,0,0,0,0,0,0],"id":89,"left_children":[1,3,5,-1,-1,-1,-1],"loss_changes":[1.662006E2,2.2643924E2,1.2703555E2,0E0,0E0,0E0,0E0],"parents":[2147483647,0,0,1,1,2,2],"right_children":[2,4,6,-1,-1,-1,-1],"split_conditions":[1.156515E1,5.6822224E0,3.7426627E-1,5.4909037E-3,7.789459E-2,-4.11175E-2,5.670972E-2],"split_indices":[8,18,15,0,0,0,0],"split_type":[0,0,0,0,0,0,0],"sum_hessian":[6.98E2,5.28E2,1.7E2,4.51E2,7.7E1,1.5E2,2E1],"tree_param":{"num_deleted":"0","num_feature":"21","num_nodes":"7","size_leaf_vector":"1"}},{"base_weights":[7.42961E-2,-1.1206532E0,3.099651E-1,-7.7455E-2,-2.2035258E-2,1.09520376E-1,5.306134E-3],"categories":[],"categories_nodes":[],"categories_segments":[],"categories_sizes":[],"default_left":[0,0,0,0,0,0,0],"id":90,"left_children":[1,3,5,-1,-1,-1,-1],"loss_changes":[2.0521893E2,4.919583E1,2.5893585E2,0E0,0E0,0E0,0E0],"parents":[2147483647,0,0,1,1,2,2],"right_children":[2,4,6,-1,-1,-1,-1],"split_conditions":[9.726849E0,5.3926206E0,4.4944E0,-7.7455E-2,-2.2035258E-2,1.09520376E-1,5.306134E-3],"split_indices":[14,0,4,0,0,0,0],"split_type":[0,0,0,0,0,0,0],"sum_hessian":[7.19E2,1.15E2,6.04E2,4.2E1,7.3E1,3.6E1,5.68E2],"tree_param":{"num_deleted":"0","num_feature":"21","num_nodes":"7","size_leaf_vector":"1"}},{"base_weights":[4.836032E-3,2.042601E0,-1.498384E-1,1.2602176E-2,1.4761318E-1,6.566112E-2,-1.0525848E-2],"categories":[],"categories_nodes":[],"categories_segments":[],"categories_sizes":[],"default_left":[0,0,0,0,0,0,0],"id":91,"left_children":[1,3,5,-1,-1,-1,-1],"loss_changes":[2.322503E2,1.4020348E2,1.3990009E2,0E0,0E0,0E0,0E0],"parents":[2147483647,0,0,1,1,2,2],"right_children":[2,4,6,-1,-1,-1,-1],"split_conditions":[-1.9588224E1,2.1548932E0,4.3135E0,1.2602176E-2,1.4761318E-1,6.566112E-2,-1.0525848E-2],"split_indices":[8,11,4,0,0,0,0],"split_type":[0,0,0,0,0,0,0],"sum_hessian":[7.24E2,4.7E1,6.77E2,2.6E1,2.1E1,3.6E1,6.41E2],"tree_param":{"num_deleted":"0","num_feature":"21","num_nodes":"7","size_leaf_vector":"1"}},{"base_weights":[1.13069065E-1,6.6436964E-1,-5.3610563E-1,4.7508784E-2,-1.9345747E-2,-4.130814E-2,3.0283699E-2],"categories":[],"categories_nodes":[],"categories_segments":[],"categories_sizes":[],"default_left":[0,0,0,0,0,0,0],"id":92,"left_children":[1,3,5,-1,-1,-1,-1],"loss_changes":[2.5952606E2,2.387428E2,2.178995E2,0E0,0E0,0E0,0E0],"parents":[2147483647,0,0,1,1,2,2],"right_children":[2,4,6,-1,-1,-1,-1],"split_conditions":[2.6666667E0,7.8629084E0,7.6811E0,4.7508784E-2,-1.9345747E-2,-4.130814E-2,3.0283699E-2],"split_indices":[6,8,4,0,0,0,0],"split_type":[0,0,0,0,0,0,0],"sum_hessian":[7.15E2,3.87E2,3.28E2,2.66E2,1.21E2,2.38E2,9E1],"tree_param":{"num_deleted":"0","num_feature":"21","num_nodes":"7","size_leaf_vector":"1"}},{"base_weights":[2.085399E-2,-6.834478E-2,1.02797136E-1,7.642173E-4,-9.567452E-2],"categories":[],"categories_nodes":[],"categories_segments":[],"categories_sizes":[],"default_left":[0,0,0,0,0],"id":93,"left_children":[1,3,-1,-1,-1],"loss_changes":[1.6811224E2,1.456813E2,0E0,0E0,0E0],"parents":[2147483647,0,0,1,1],"right_children":[2,4,-1,-1,-1],"split_conditions":[1.7554241E1,1.02319E1,1.02797136E-1,7.642173E-4,-9.567452E-2],"split_indices":[3,4,0,0,0],"split_type":[0,0,0,0,0],"sum_hessian":[7.25E2,7.05E2,2E1,6.84E2,2.1E1],"tree_param":{"num_deleted":"0","num_feature":"21","num_nodes":"5","size_leaf_vector":"1"}},{"base_weights":[3.9186276E-2,-6.4549625E-1,3.7649724E-1,5.6339696E-2,-3.5584703E-2,1.4252363E-1,7.1113333E-3],"categories":[],"categories_nodes":[],"categories_segments":[],"categories_sizes":[],"default_left":[0,0,0,0,0,0,0],"id":94,"left_children":[1,3,5,-1,-1,-1,-1],"loss_changes":[1.6667245E2,1.2534422E2,3.01441E2,0E0,0E0,0E0,0E0],"parents":[2147483647,0,0,1,1,2,2],"right_children":[2,4,6,-1,-1,-1,-1],"split_conditions":[1.1918605E1,6.4220185E0,-1.8402918E1,5.6339696E-2,-3.5584703E-2,1.4252363E-1,7.1113333E-3],"split_indices":[14,3,8,0,0,0,0],"split_type":[0,0,0,0,0,0,0],"sum_hessian":[7.12E2,2.33E2,4.79E2,2.2E1,2.11E2,2.3E1,4.56E2],"tree_param":{"num_deleted":"0","num_feature":"21","num_nodes":"7","size_leaf_vector":"1"}},{"base_weights":[-0E0,3.0275032E-1,-9.2696416E-1,-4.427318E-3,8.949567E-2,5.0411955E-2,-5.487792E-2],"categories":[],"categories_nodes":[],"categories_segments":[],"categories_sizes":[],"default_left":[0,0,0,0,0,0,0],"id":95,"left_children":[1,3,5,-1,-1,-1,-1],"loss_changes":[1.9959117E2,4.318184E2,1.7902803E2,0E0,0E0,0E0,0E0],"parents":[2147483647,0,0,1,1,2,2],"right_children":[2,4,6,-1,-1,-1,-1],"split_conditions":[1.1897425E1,-4.820012E0,-1.0942824E1,-4.427318E-3,8.949567E-2,5.0411955E-2,-5.487792E-2],"split_indices":[8,12,7,0,0,0,0],"split_type":[0,0,0,0,0,0,0],"sum_hessian":[7.02E2,5.32E2,1.7E2,4.42E2,9E1,2.7E1,1.43E2],"tree_param":{"num_deleted":"0","num_feature":"21","num_nodes":"7","size_leaf_vector":"1"}},{"base_weights":[1.0013982E-1,-9.818214E-2,1.012115E0,-6.452306E-2,3.0256663E-3,1.0896042E-1,-2.244351E-3],"categories":[],"categories_nodes":[],"categories_segments":[],"categories_sizes":[],"default_left":[0,0,0,0,0,0,0],"id":96,"left_children":[1,3,5,-1,-1,-1,-1],"loss_changes":[1.3370853E2,1.612169E2,2.4348492E2,0E0,0E0,0E0,0E0],"parents":[2147483647,0,0,1,1,2,2],"right_children":[2,4,6,-1,-1,-1,-1],"split_conditions":[4.0447392E0,2.4848E0,-5.394525E0,-6.452306E-2,3.0256663E-3,1.0896042E-1,-2.244351E-3],"split_indices":[11,20,8,0,0,0,0],"split_type":[0,0,0,0,0,0,0],"sum_hessian":[7.29E2,6.02E2,1.27E2,5.8E1,5.44E2,4.6E1,8.1E1],"tree_param":{"num_deleted":"0","num_feature":"21","num_nodes":"7","size_leaf_vector":"1"}},{"base_weights":[7.2799996E-2,3.3206785E-1,-7.3269194E-1,-8.694628E-3,6.291551E-2,-5.237181E-2,5.0846584E-2],"categories":[],"categories_nodes":[],"categories_segments":[],"categories_sizes":[],"default_left":[0,0,0,0,0,0,0],"id":97,"left_children":[1,3,5,-1,-1,-1,-1],"loss_changes":[1.4845595E2,3.6916772E2,2.082302E2,0E0,0E0,0E0,0E0],"parents":[2147483647,0,0,1,1,2,2],"right_children":[2,4,6,-1,-1,-1,-1],"split_conditions":[1.156515E1,1.1313083E0,1.5765679E0,-8.694628E-3,6.291551E-2,-5.237181E-2,5.0846584E-2],"split_indices":[8,8,17,0,0,0,0],"split_type":[0,0,0,0,0,0,0],"sum_hessian":[7.01E2,5.33E2,1.68E2,3.72E2,1.61E2,1.32E2,3.6E1],"tree_param":{"num_deleted":"0","num_feature":"21","num_nodes":"7","size_leaf_vector":"1"}},{"base_weights":[2.2668688E-2,2.736546E-1,-1.0330353E0,-1.0064502E-3,1.001742E-1,4.8790057E-3,-8.072169E-2],"categories":[],"categories_nodes":[],"categories_segments":[],"categories_sizes":[],"default_left":[0,0,0,0,0,0,0],"id":98,"left_children":[1,3,5,-1,-1,-1,-1],"loss_changes":[1.9048506E2,3.8949768E2,1.5918048E2,0E0,0E0,0E0,0E0],"parents":[2147483647,0,0,1,1,2,2],"right_children":[2,4,6,-1,-1,-1,-1],"split_conditions":[1.9222153E0,1.6782458E0,2.5136611E0,-1.0064502E-3,1.001742E-1,4.8790057E-3,-8.072169E-2],"split_indices":[17,17,6,0,0,0,0],"split_type":[0,0,0,0,0,0,0],"sum_hessian":[7.1E2,5.77E2,1.33E2,5.13E2,6.4E1,6.3E1,7E1],"tree_param":{"num_deleted":"0","num_feature":"21","num_nodes":"7","size_leaf_vector":"1"}},{"base_weights":[1.4475377E-1,4.5920238E-1,-7.71735E-1,1.4874014E-3,1.0586126E-1,7.490931E-2,-5.7480663E-2],"categories":[],"categories_nodes":[],"categories_segments":[],"categories_sizes":[],"default_left":[0,0,0,0,0,0,0],"id":99,"left_children":[1,3,5,-1,-1,-1,-1],"loss_changes":[2.0190675E2,4.7909644E2,3.281554E2,0E0,0E0,0E0,0E0],"parents":[2147483647,0,0,1,1,2,2],"right_children":[2,4,6,-1,-1,-1,-1],"split_conditions":[1.1897425E1,-4.820012E0,-4.4708424E1,1.4874014E-3,1.0586126E-1,7.490931E-2,-5.7480663E-2],"split_indices":[8,12,13,0,0,0,0],"split_type":[0,0,0,0,0,0,0],"sum_hessian":[6.9E2,5.16E2,1.74E2,4.37E2,7.9E1,3.3E1,1.41E2],"tree_param":{"num_deleted":"0","num_feature":"21","num_nodes":"7","size_leaf_vector":"1"}},{"base_weights":[-9.100654E-2,5.384256E-1,-4.515598E-1,-1.10818284E-4,1.0610371E-1,-6.552802E-2,2.3291484E-3],"categories":[],"categories_nodes":[],"categories_segments":[],"categories_sizes":[],"default_left":[0,0,0,0,0,0,0],"id":100,"left_children":[1,3,5,-1,-1,-1,-1],"loss_changes":[1.645718E2,3.0342493E2,2.8014236E2,0E0,0E0,0E0,0E0],"parents":[2147483647,0,0,1,1,2,2],"right_children":[2,4,6,-1,-1,-1,-1],"split_conditions":[-5.0238857E0,3.9716442E0,2.4095316E0,-1.10818284E-4,1.0610371E-1,-6.552802E-2,2.3291484E-3],"split_indices":[8,11,8,0,0,0,0],"split_type":[0,0,0,0,0,0,0],"sum_hessian":[7.15E2,2.59E2,4.56E2,2.1E2,4.9E1,1.34E2,3.22E2],"tree_param":{"num_deleted":"0","num_feature":"21","num_nodes":"7","size_leaf_vector":"1"}},{"base_weights":[-1.3854587E-1,-4.1365552E-1,8.877718E-1,-2.4728596E-2,4.319268E-2,7.5707994E-2,-3.1864397E-2],"categories":[],"categories_nodes":[],"categories_segments":[],"categories_sizes":[],"default_left":[0,0,0,0,0,0,0],"id":101,"left_children":[1,3,5,-1,-1,-1,-1],"loss_changes":[2.09691E2,1.8182672E2,2.7383792E2,0E0,0E0,0E0,0E0],"parents":[2147483647,0,0,1,1,2,2],"right_children":[2,4,6,-1,-1,-1,-1],"split_conditions":[3.9716442E0,3.7975195E-1,3.5240417E0,-2.4728596E-2,4.319268E-2,7.5707994E-2,-3.1864397E-2],"split_indices":[11,15,19,0,0,0,0],"split_type":[0,0,0,0,0,0,0],"sum_hessian":[7.32E2,5.8E2,1.52E2,5.13E2,6.7E1,9.5E1,5.7E1],"tree_param":{"num_deleted":"0","num_feature":"21","num_nodes":"7","size_leaf_vector":"1"}},{"base_weights":[2.0438246E-2,1.058762E0,-2.7926153E-1,-1.27393585E-2,1.4067565E-1,8.547032E-2,-1.5636066E-2],"categories":[],"categories_nodes":[],"categories_segments":[],"categories_sizes":[],"default_left":[0,0,0,0,0,0,0],"id":102,"left_children":[1,3,5,-1,-1,-1,-1],"loss_changes":[2.2218735E2,5.4887134E2,1.5246117E2,0E0,0E0,0E0,0E0],"parents":[2147483647,0,0,1,1,2,2],"right_children":[2,4,6,-1,-1,-1,-1],"split_conditions":[3.432887E-2,1.6782458E0,-1.4665997E1,-1.27393585E-2,1.4067565E-1,8.547032E-2,-1.5636066E-2],"split_indices":[2,17,7,0,0,0,0],"split_type":[0,0,0,0,0,0,0],"sum_hessian":[7.03E2,1.55E2,5.48E2,1.02E2,5.3E1,2E1,5.28E2],"tree_param":{"num_deleted":"0","num_feature":"21","num_nodes":"7","size_leaf_vector":"1"}},{"base_weights":[-6.971729E-2,-8.9857364E-1,2.9291525E-1,4.055347E-2,-4.6340328E-2,-2.5628116E-3,5.9595145E-2],"categories":[],"categories_nodes":[],"categories_segments":[],"categories_sizes":[],"default_left":[0,0,0,0,0,0,0],"id":103,"left_children":[1,3,5,-1,-1,-1,-1],"loss_changes":[2.1923175E2,1.1630156E2,2.178306E2,0E0,0E0,0E0,0E0],"parents":[2147483647,0,0,1,1,2,2],"right_children":[2,4,6,-1,-1,-1,-1],"split_conditions":[1.14388485E1,-2.142857E0,-2.7968924E1,4.055347E-2,-4.6340328E-2,-2.5628116E-3,5.9595145E-2],"split_indices":[14,6,13,0,0,0,0],"split_type":[0,0,0,0,0,0,0],"sum_hessian":[7.19E2,2.17E2,5.02E2,2.4E1,1.93E2,3.9E2,1.12E2],"tree_param":{"num_deleted":"0","num_feature":"21","num_nodes":"7","size_leaf_vector":"1"}},{"base_weights":[1.4242023E-2,2.006928E-1,-1.2680129E0,-2.8856695E-3,5.515121E-2,-1.596507E-2,-1.2278148E-1],"categories":[],"categories_nodes":[],"categories_segments":[],"categories_sizes":[],"default_left":[0,0,0,0,0,0,0],"id":104,"left_children":[1,3,5,-1,-1,-1,-1],"loss_changes":[1.7335265E2,2.0525423E2,1.3614935E2,0E0,0E0,0E0,0E0],"parents":[2147483647,0,0,1,1,2,2],"right_children":[2,4,6,-1,-1,-1,-1],"split_conditions":[4.2047777E0,4.0447392E0,8.4343E0,-2.8856695E-3,5.515121E-2,-1.596507E-2,-1.2278148E-1],"split_indices":[19,11,4,0,0,0,0],"split_type":[0,0,0,0,0,0,0],"sum_hessian":[7.17E2,6.3E2,8.7E1,5.15E2,1.15E2,6.3E1,2.4E1],"tree_param":{"num_deleted":"0","num_feature":"21","num_nodes":"7","size_leaf_vector":"1"}},{"base_weights":[7.47659E-2,4.4359457E-1,-4.0354314E-1,1.13005094E-1,1.0108323E-2,2.9140847E-2,-4.7714613E-2],"categories":[],"categories_nodes":[],"categories_segments":[],"categories_sizes":[],"default_left":[0,0,0,0,0,0,0],"id":105,"left_children":[1,3,5,-1,-1,-1,-1],"loss_changes":[1.3340207E2,1.8900667E2,2.9855972E2,0E0,0E0,0E0,0E0],"parents":[2147483647,0,0,1,1,2,2],"right_children":[2,4,6,-1,-1,-1,-1],"split_conditions":[2.762431E0,4.4944E0,2.7674186E0,1.13005094E-1,1.0108323E-2,2.9140847E-2,-4.7714613E-2],"split_indices":[6,4,19,0,0,0,0],"split_type":[0,0,0,0,0,0,0],"sum_hessian":[7.46E2,4.22E2,3.24E2,2.6E1,3.96E2,1.33E2,1.91E2],"tree_param":{"num_deleted":"0","num_feature":"21","num_nodes":"7","size_leaf_vector":"1"}},{"base_weights":[6.080337E-2,2.7864662E-1,-8.684968E-1,5.7492416E-2,-3.919018E-3,4.4723365E-2,-6.049981E-2],"categories":[],"categories_nodes":[],"categories_segments":[],"categories_sizes":[],"default_left":[0,0,0,0,0,0,0],"id":106,"left_children":[1,3,5,-1,-1,-1,-1],"loss_changes":[1.4080237E2,2.4749117E2,1.7752759E2,0E0,0E0,0E0,0E0],"parents":[2147483647,0,0,1,1,2,2],"right_children":[2,4,6,-1,-1,-1,-1],"split_conditions":[2.791191E1,-3.491969E1,-4.6899754E1,5.7492416E-2,-3.919018E-3,4.4723365E-2,-6.049981E-2],"split_indices":[14,13,13,0,0,0,0],"split_type":[0,0,0,0,0,0,0],"sum_hessian":[6.86E2,5.59E2,1.27E2,1.34E2,4.25E2,3E1,9.7E1],"tree_param":{"num_deleted":"0","num_feature":"21","num_nodes":"7","size_leaf_vector":"1"}},{"base_weights":[1.0871035E-2,-2.0429915E-1,1.2322451E0,-1.7612623E-2,2.2634331E-2,3.140608E-3,2.0661491E-1],"categories":[],"categories_nodes":[],"categories_segments":[],"categories_sizes":[],"default_left":[0,0,0,0,0,0,0],"id":107,"left_children":[1,3,5,-1,-1,-1,-1],"loss_changes":[1.946703E2,1.15334465E2,4.9904245E2,0E0,0E0,0E0,0E0],"parents":[2147483647,0,0,1,1,2,2],"right_children":[2,4,6,-1,-1,-1,-1],"split_conditions":[-2.7647111E0,3.2560434E0,6.708045E0,-1.7612623E-2,2.2634331E-2,3.140608E-3,2.0661491E-1],"split_indices":[12,1,10,0,0,0,0],"split_type":[0,0,0,0,0,0,0],"sum_hessian":[7.29E2,6.23E2,1.06E2,4.79E2,1.44E2,8.6E1,2E1],"tree_param":{"num_deleted":"0","num_feature":"21","num_nodes":"7","size_leaf_vector":"1"}},{"base_weights":[-9.408014E-3,-2.920356E-1,1.0553356E0,-2.0178942E-2,4.5511317E-2,1.0436547E-2,1.4348322E-1],"categories":[],"categories_nodes":[],"categories_segments":[],"categories_sizes":[],"default_left":[0,0,0,0,0,0,0],"id":108,"left_children":[1,3,5,-1,-1,-1,-1],"loss_changes":[2.1963158E2,1.7811942E2,3.0112128E2,0E0,0E0,0E0,0E0],"parents":[2147483647,0,0,1,1,2,2],"right_children":[2,4,6,-1,-1,-1,-1],"split_conditions":[3.9716442E0,3.7975195E-1,-2.5376411E1,-2.0178942E-2,4.5511317E-2,1.0436547E-2,1.4348322E-1],"split_indices":[11,15,13,0,0,0,0],"split_type":[0,0,0,0,0,0,0],"sum_hessian":[7.21E2,5.73E2,1.48E2,5.02E2,7.1E1,1.17E2,3.1E1],"tree_param":{"num_deleted":"0","num_feature":"21","num_nodes":"7","size_leaf_vector":"1"}},{"base_weights":[3.8791027E-2,-4.473409E-2,8.911864E-2,5.041996E-3,-4.9502805E-2],"categories":[],"categories_nodes":[],"categories_segments":[],"categories_sizes":[],"default_left":[0,0,0,0,0],"id":109,"left_children":[1,3,-1,-1,-1],"loss_changes":[1.3433986E2,1.4475273E2,0E0,0E0,0E0],"parents":[2147483647,0,0,1,1],"right_children":[2,4,-1,-1,-1],"split_conditions":[1.1521324E1,4.1753745E0,8.911864E-2,5.041996E-3,-4.9502805E-2],"split_indices":[0,19,0,0,0],"split_type":[0,0,0,0,0],"sum_hessian":[7.21E2,6.99E2,2.2E1,6.15E2,8.4E1],"tree_param":{"num_deleted":"0","num_feature":"21","num_nodes":"5","size_leaf_vector":"1"}},{"base_weights":[-2.6559245E-2,1.9288576E-1,-1.4464223E0,2.6815047E-3,1.15732946E-1,7.604174E-3,-8.336426E-2],"categories":[],"categories_nodes":[],"categories_segments":[],"categories_sizes":[],"default_left":[0,0,0,0,0,0,0],"id":110,"left_children":[1,3,5,-1,-1,-1,-1],"loss_changes":[2.2106378E2,2.0587505E2,1.0206877E2,0E0,0E0,0E0,0E0],"parents":[2147483647,0,0,1,1,2,2],"right_children":[2,4,6,-1,-1,-1,-1],"split_conditions":[6.5699425E0,6.146179E0,1.3513514E1,2.6815047E-3,1.15732946E-1,7.604174E-3,-8.336426E-2],"split_indices":[6,6,14,0,0,0,0],"split_type":[0,0,0,0,0,0,0],"sum_hessian":[6.98E2,6.08E2,9E1,5.86E2,2.2E1,2.6E1,6.4E1],"tree_param":{"num_deleted":"0","num_feature":"21","num_nodes":"7","size_leaf_vector":"1"}},{"base_weights":[1.9040426E-2,2.9262555E-1,-7.749649E-1,-6.983652E-3,6.57888E-2,5.1412348E-2,-4.644401E-2],"categories":[],"categories_nodes":[],"categories_segments":[],"categories_sizes":[],"default_left":[0,0,0,0,0,0,0],"id":111,"left_children":[1,3,5,-1,-1,-1,-1],"loss_changes":[1.6033809E2,3.4961755E2,1.5775769E2,0E0,0E0,0E0,0E0],"parents":[2147483647,0,0,1,1,2,2],"right_children":[2,4,6,-1,-1,-1,-1],"split_conditions":[1.156515E1,2.4095316E0,-4.649266E1,-6.983652E-3,6.57888E-2,5.1412348E-2,-4.644401E-2],"split_indices":[8,8,13,0,0,0,0],"split_type":[0,0,0,0,0,0,0],"sum_hessian":[7.29E2,5.45E2,1.84E2,4.08E2,1.37E2,2.7E1,1.57E2],"tree_param":{"num_deleted":"0","num_feature":"21","num_nodes":"7","size_leaf_vector":"1"}},{"base_weights":[-1.0977306E-1,7.010008E-2,-2.2472407E-1,-1.6919386E-2,2.5059728E-2],"categories":[],"categories_nodes":[],"categories_segments":[],"categories_sizes":[],"default_left":[0,0,0,0,0],"id":112,"left_children":[1,-1,3,-1,-1],"loss_changes":[1.5469373E2,0E0,1.15981964E2,0E0,0E0],"parents":[2147483647,0,0,2,2],"right_children":[2,-1,4,-1,-1],"split_conditions":[4.3135E0,7.010008E-2,4.0447392E0,-1.6919386E-2,2.5059728E-2],"split_indices":[4,0,11,0,0],"split_type":[0,0,0,0,0],"sum_hessian":[7.12E2,3.7E1,6.75E2,5.5E2,1.25E2],"tree_param":{"num_deleted":"0","num_feature":"21","num_nodes":"5","size_leaf_vector":"1"}},{"base_weights":[1.932977E-1,-3.5357848E-1,6.321131E-1,1.3582826E-2,-7.344703E-2,1.0471067E-1,1.348587E-2],"categories":[],"categories_nodes":[],"categories_segments":[],"categories_sizes":[],"default_left":[0,0,0,0,0,0,0],"id":113,"left_children":[1,3,5,-1,-1,-1,-1],"loss_changes":[1.7068103E2,3.296344E2,2.2487589E2,0E0,0E0,0E0,0E0],"parents":[2147483647,0,0,1,1,2,2],"right_children":[2,4,6,-1,-1,-1,-1],"split_conditions":[9.395248E0,1.928332E1,9.908257E0,1.3582826E-2,-7.344703E-2,1.0471067E-1,1.348587E-2],"split_indices":[3,14,3,0,0,0,0],"split_type":[0,0,0,0,0,0,0],"sum_hessian":[7.01E2,3.12E2,3.89E2,2.15E2,9.7E1,4.5E1,3.44E2],"tree_param":{"num_deleted":"0","num_feature":"21","num_nodes":"7","size_leaf_vector":"1"}},{"base_weights":[1.4297284E-1,7.205547E-1,-4.2572752E-1,1.7381331E-2,1.6596659E-1,-4.6651177E-3,-9.613231E-2],"categories":[],"categories_nodes":[],"categories_segments":[],"categories_sizes":[],"default_left":[0,0,0,0,0,0,0],"id":114,"left_children":[1,3,5,-1,-1,-1,-1],"loss_changes":[2.3850882E2,3.4172955E2,2.2106311E2,0E0,0E0,0E0,0E0],"parents":[2147483647,0,0,1,1,2,2],"right_children":[2,4,6,-1,-1,-1,-1],"split_conditions":[3.1621334E-1,8.310379E0,6.984564E0,1.7381331E-2,1.6596659E-1,-4.6651177E-3,-9.613231E-2],"split_indices":[15,10,10,0,0,0,0],"split_type":[0,0,0,0,0,0,0],"sum_hessian":[7.16E2,3.55E2,3.61E2,3.33E2,2.2E1,3.17E2,4.4E1],"tree_param":{"num_deleted":"0","num_feature":"21","num_nodes":"7","size_leaf_vector":"1"}},{"base_weights":[-7.811798E-2,1.100015E0,-2.592566E-1,1.0867853E-1,-1.1704447E-2,-2.0709647E-2,2.2667462E-2],"categories":[],"categories_nodes":[],"categories_segments":[],"categories_sizes":[],"default_left":[0,0,0,0,0,0,0],"id":115,"left_children":[1,3,5,-1,-1,-1,-1],"loss_changes":[1.5700491E2,2.2586407E2,1.3765143E2,0E0,0E0,0E0,0E0],"parents":[2147483647,0,0,1,1,2,2],"right_children":[2,4,6,-1,-1,-1,-1],"split_conditions":[5.3030305E0,5.1913E0,9.6849E0,1.0867853E-1,-1.1704447E-2,-2.0709647E-2,2.2667462E-2],"split_indices":[0,4,4,0,0,0,0],"split_type":[0,0,0,0,0,0,0],"sum_hessian":[7.26E2,9.3E1,6.33E2,4.1E1,5.2E1,4.84E2,1.49E2],"tree_param":{"num_deleted":"0","num_feature":"21","num_nodes":"7","size_leaf_vector":"1"}},{"base_weights":[6.344623E-2,-7.376831E-2,1.50936E0,-6.6934004E-2,1.745348E-3,1.12657994E-1,-3.873693E-2],"categories":[],"categories_nodes":[],"categories_segments":[],"categories_sizes":[],"default_left":[0,0,0,0,0,0,0],"id":116,"left_children":[1,3,5,-1,-1,-1,-1],"loss_changes":[1.419404E2,1.23621704E2,2.1536009E2,0E0,0E0,0E0,0E0],"parents":[2147483647,0,0,1,1,2,2],"right_children":[2,4,6,-1,-1,-1,-1],"split_conditions":[1.0033E1,2.251653E-1,2.7565983E1,-6.6934004E-2,1.745348E-3,1.12657994E-1,-3.873693E-2],"split_indices":[4,15,14,0,0,0,0],"split_type":[0,0,0,0,0,0,0],"sum_hessian":[7.04E2,6.47E2,5.7E1,4E1,6.07E2,3.7E1,2E1],"tree_param":{"num_deleted":"0","num_feature":"21","num_nodes":"7","size_leaf_vector":"1"}},{"base_weights":[-1.07055984E-1,6.337972E-1,-5.1078415E-1,6.621865E-3,1.5474886E-1,2.5986185E-2,-3.4785006E-2],"categories":[],"categories_nodes":[],"categories_segments":[],"categories_sizes":[],"default_left":[0,0,0,0,0,0,0],"id":117,"left_children":[1,3,5,-1,-1,-1,-1],"loss_changes":[2.1033128E2,3.7043994E2,1.9240268E2,0E0,0E0,0E0,0E0],"parents":[2147483647,0,0,1,1,2,2],"right_children":[2,4,6,-1,-1,-1,-1],"split_conditions":[9.682625E-1,7.763975E-1,7.570022E-2,6.621865E-3,1.5474886E-1,2.5986185E-2,-3.4785006E-2],"split_indices":[1,1,2,0,0,0,0],"split_type":[0,0,0,0,0,0,0],"sum_hessian":[6.93E2,2.43E2,4.5E2,2.17E2,2.6E1,1.05E2,3.45E2],"tree_param":{"num_deleted":"0","num_feature":"21","num_nodes":"7","size_leaf_vector":"1"}},{"base_weights":[1.2807031E-1,8.4646955E-2,1.1671326E-2,-2.9073888E-3,9.200808E-2],"categories":[],"categories_nodes":[],"categories_segments":[],"categories_sizes":[],"default_left":[0,0,0,0,0],"id":118,"left_children":[1,-1,3,-1,-1],"loss_changes":[1.6728143E2,0E0,1.3573431E2,0E0,0E0],"parents":[2147483647,0,0,2,2],"right_children":[2,-1,4,-1,-1],"split_conditions":[4.3135E0,8.4646955E-2,9.475951E0,-2.9073888E-3,9.200808E-2],"split_indices":[4,0,10,0,0],"split_type":[0,0,0,0,0],"sum_hessian":[7.23E2,3.5E1,6.88E2,6.68E2,2E1],"tree_param":{"num_deleted":"0","num_feature":"21","num_nodes":"5","size_leaf_vector":"1"}},{"base_weights":[8.74121E-2,7.32978E-1,-2.1641073E-1,-1.1757811E-2,8.186395E-2,-1.8549254E-2,5.678359E-2],"categories":[],"categories_nodes":[],"categories_segments":[],"categories_sizes":[],"default_left":[0,0,0,0,0,0,0],"id":119,"left_children":[1,3,5,-1,-1,-1,-1],"loss_changes":[1.3854391E2,3.087555E2,1.9702959E2,0E0,0E0,0E0,0E0],"parents":[2147483647,0,0,1,1,2,2],"right_children":[2,4,6,-1,-1,-1,-1],"split_conditions":[1.2324114E0,4.788233E0,3.8052785E-1,-1.1757811E-2,8.186395E-2,-1.8549254E-2,5.678359E-2],"split_indices":[17,10,15,0,0,0,0],"split_type":[0,0,0,0,0,0,0],"sum_hessian":[6.96E2,2.21E2,4.75E2,1.26E2,9.5E1,4.16E2,5.9E1],"tree_param":{"num_deleted":"0","num_feature":"21","num_nodes":"7","size_leaf_vector":"1"}},{"base_weights":[4.8687495E-2,4.119701E-1,-4.054653E-1,6.3498407E-3,1.552422E-1,4.9289957E-2,-3.4547444E-2],"categories":[],"categories_nodes":[],"categories_segments":[],"categories_sizes":[],"default_left":[0,0,0,0,0,0,0],"id":120,"left_children":[1,3,5,-1,-1,-1,-1],"loss_changes":[1.1929827E2,3.4803882E2,2.4602667E2,0E0,0E0,0E0,0E0],"parents":[2147483647,0,0,1,1,2,2],"right_children":[2,4,6,-1,-1,-1,-1],"split_conditions":[7.1922E0,6.771E0,1.1209404E0,6.3498407E-3,1.552422E-1,4.9289957E-2,-3.4547444E-2],"split_indices":[20,20,17,0,0,0,0],"split_type":[0,0,0,0,0,0,0],"sum_hessian":[7.13E2,3.97E2,3.16E2,3.75E2,2.2E1,6.7E1,2.49E2],"tree_param":{"num_deleted":"0","num_feature":"21","num_nodes":"7","size_leaf_vector":"1"}},{"base_weights":[5.69942E-2,-4.238301E-1,5.034055E-1,-1.2385508E-3,-7.296719E-2,-4.80758E-3,7.332845E-2],"categories":[],"categories_nodes":[],"categories_segments":[],"categories_sizes":[],"default_left":[0,0,0,0,0,0,0],"id":121,"left_children":[1,3,5,-1,-1,-1,-1],"loss_changes":[1.535048E2,1.880417E2,3.096137E2,0E0,0E0,0E0,0E0],"parents":[2147483647,0,0,1,1,2,2],"right_children":[2,4,6,-1,-1,-1,-1],"split_conditions":[-8.193072E0,6.3907046E0,6.003752E0,-1.2385508E-3,-7.296719E-2,-4.80758E-3,7.332845E-2],"split_indices":[12,10,10,0,0,0,0],"split_type":[0,0,0,0,0,0,0],"sum_hessian":[7.05E2,3.39E2,3.66E2,2.69E2,7E1,2.52E2,1.14E2],"tree_param":{"num_deleted":"0","num_feature":"21","num_nodes":"7","size_leaf_vector":"1"}},{"base_weights":[3.938757E-2,-1.7355876E-1,9.6177655E-1,7.644994E-2,-1.2904612E-2,1.4038724E-1,4.4200853E-3],"categories":[],"categories_nodes":[],"categories_segments":[],"categories_sizes":[],"default_left":[0,0,0,0,0,0,0],"id":122,"left_children":[1,3,5,-1,-1,-1,-1],"loss_changes":[1.4343634E2,1.8625516E2,2.933991E2,0E0,0E0,0E0,0E0],"parents":[2147483647,0,0,1,1,2,2],"right_children":[2,4,6,-1,-1,-1,-1],"split_conditions":[4.0447392E0,9.051733E-1,4.2778025E0,7.644994E-2,-1.2904612E-2,1.4038724E-1,4.4200853E-3],"split_indices":[11,17,11,0,0,0,0],"split_type":[0,0,0,0,0,0,0],"sum_hessian":[7.19E2,5.87E2,1.32E2,3.5E1,5.52E2,2.9E1,1.03E2],"tree_param":{"num_deleted":"0","num_feature":"21","num_nodes":"7","size_leaf_vector":"1"}},{"base_weights":[-1.63471E-1,4.6453422E-1,-4.8150074E-1,-1.1869648E-2,5.82865E-2,-9.136099E-2,-9.076763E-3],"categories":[],"categories_nodes":[],"categories_segments":[],"categories_sizes":[],"default_left":[0,0,0,0,0,0,0],"id":123,"left_children":[1,3,5,-1,-1,-1,-1],"loss_changes":[1.4073416E2,1.8183447E2,2.1045456E2,0E0,0E0,0E0,0E0],"parents":[2147483647,0,0,1,1,2,2],"right_children":[2,4,6,-1,-1,-1,-1],"split_conditions":[1.2324114E0,4.788233E0,1.306534E0,-1.1869648E-2,5.82865E-2,-9.136099E-2,-9.076763E-3],"split_indices":[17,10,17,0,0,0,0],"split_type":[0,0,0,0,0,0,0],"sum_hessian":[6.94E2,2.32E2,4.62E2,1.33E2,9.9E1,5.2E1,4.1E2],"tree_param":{"num_deleted":"0","num_feature":"21","num_nodes":"7","size_leaf_vector":"1"}},{"base_weights":[-2.3351727E-1,3.5861012E-1,-5.8242327E-1,-5.6698387E-3,1.0377435E-1,5.5323146E-2,-3.1116402E-2],"categories":[],"categories_nodes":[],"categories_segments":[],"categories_sizes":[],"default_left":[0,0,0,0,0,0,0],"id":124,"left_children":[1,3,5,-1,-1,-1,-1],"loss_changes":[1.507323E2,3.062247E2,1.8105421E2,0E0,0E0,0E0,0E0],"parents":[2147483647,0,0,1,1,2,2],"right_children":[2,4,6,-1,-1,-1,-1],"split_conditions":[2.9476124E-1,2.8684613E-1,-4.308943E1,-5.6698387E-3,1.0377435E-1,5.5323146E-2,-3.1116402E-2],"split_indices":[15,15,13,0,0,0,0],"split_type":[0,0,0,0,0,0,0],"sum_hessian":[7.19E2,2.66E2,4.53E2,2.21E2,4.5E1,3.8E1,4.15E2],"tree_param":{"num_deleted":"0","num_feature":"21","num_nodes":"7","size_leaf_vector":"1"}},{"base_weights":[7.488695E-2,-4.483614E-2,1.7740601E0,8.143756E-3,-3.698391E-2,1.4393154E-1,-9.00205E-3],"categories":[],"categories_nodes":[],"categories_segments":[],"categories_sizes":[],"default_left":[0,0,0,0,0,0,0],"id":125,"left_children":[1,3,5,-1,-1,-1,-1],"loss_changes":[1.4529095E2,1.4686214E2,1.771369E2,0E0,0E0,0E0,0E0],"parents":[2147483647,0,0,1,1,2,2],"right_children":[2,4,6,-1,-1,-1,-1],"split_conditions":[1.06508875E1,3.6871357E0,3.1736237E-1,8.143756E-3,-3.698391E-2,1.4393154E-1,-9.00205E-3],"split_indices":[0,19,15,0,0,0,0],"split_type":[0,0,0,0,0,0,0],"sum_hessian":[7.03E2,6.61E2,4.2E1,5.18E2,1.43E2,2E1,2.2E1],"tree_param":{"num_deleted":"0","num_feature":"21","num_nodes":"7","size_leaf_vector":"1"}},{"base_weights":[1.5072366E-2,6.573056E-1,-2.9147622E-1,3.119291E-3,8.664047E-2,2.3445407E-2,-2.5056986E-2],"categories":[],"categories_nodes":[],"categories_segments":[],"categories_sizes":[],"default_left":[0,0,0,0,0,0,0],"id":126,"left_children":[1,3,5,-1,-1,-1,-1],"loss_changes":[1.3698508E2,1.9468991E2,1.4001465E2,0E0,0E0,0E0,0E0],"parents":[2147483647,0,0,1,1,2,2],"right_children":[2,4,6,-1,-1,-1,-1],"split_conditions":[1.2324114E0,7.458234E0,2.933548E-1,3.119291E-3,8.664047E-2,2.3445407E-2,-2.5056986E-2],"split_indices":[17,5,15,0,0,0,0],"split_type":[0,0,0,0,0,0,0],"sum_hessian":[6.85E2,2.2E2,4.65E2,1.63E2,5.7E1,1.27E2,3.38E2],"tree_param":{"num_deleted":"0","num_feature":"21","num_nodes":"7","size_leaf_vector":"1"}},{"base_weights":[1.0966412E-1,4.178705E-1,-4.4038707E-1,9.215908E-3,1.1115437E-1,-5.887875E-2,4.9377987E-3],"categories":[],"categories_nodes":[],"categories_segments":[],"categories_sizes":[],"default_left":[0,0,0,0,0,0,0],"id":127,"left_children":[1,3,5,-1,-1,-1,-1],"loss_changes":[1.2466524E2,2.0376874E2,1.5513545E2,0E0,0E0,0E0,0E0],"parents":[2147483647,0,0,1,1,2,2],"right_children":[2,4,6,-1,-1,-1,-1],"split_conditions":[3.4114525E-1,8.412765E0,3.2017076E-1,9.215908E-3,1.1115437E-1,-5.887875E-2,4.9377987E-3],"split_indices":[15,10,2,0,0,0,0],"split_type":[0,0,0,0,0,0,0],"sum_hessian":[7.25E2,4.66E2,2.59E2,4.37E2,2.9E1,8.9E1,1.7E2],"tree_param":{"num_deleted":"0","num_feature":"21","num_nodes":"7","size_leaf_vector":"1"}},{"base_weights":[5.9979405E-2,1.4262877E0,-1.5857369E-1,1.125193E-1,-2.965751E-2,-1.2532585E-2,5.803935E-2],"categories":[],"categories_nodes":[],"categories_segments":[],"categories_sizes":[],"default_left":[0,0,0,0,0,0,0],"id":128,"left_children":[1,3,5,-1,-1,-1,-1],"loss_changes":[2.2303537E2,3.2107935E2,1.6185269E2,0E0,0E0,0E0,0E0],"parents":[2147483647,0,0,1,1,2,2],"right_children":[2,4,6,-1,-1,-1,-1],"split_conditions":[-1.4969632E1,-3.476235E1,1.0033E1,1.125193E-1,-2.965751E-2,-1.2532585E-2,5.803935E-2],"split_indices":[8,13,4,0,0,0,0],"split_type":[0,0,0,0,0,0,0],"sum_hessian":[7.36E2,9.8E1,6.38E2,5.9E1,3.9E1,5.86E2,5.2E1],"tree_param":{"num_deleted":"0","num_feature":"21","num_nodes":"7","size_leaf_vector":"1"}},{"base_weights":[1.1915576E-1,-3.1612778E-1,5.276295E-1,9.230528E-2,-2.3491535E-2,-2.7134449E-3,4.2807706E-2],"categories":[],"categories_nodes":[],"categories_segments":[],"categories_sizes":[],"default_left":[0,0,0,0,0,0,0],"id":129,"left_children":[1,3,5,-1,-1,-1,-1],"loss_changes":[1.3002391E2,2.5777298E2,1.2266448E2,0E0,0E0,0E0,0E0],"parents":[2147483647,0,0,1,1,2,2],"right_children":[2,4,6,-1,-1,-1,-1],"split_conditions":[9.660574E0,9.1336995E-1,6.10998E-1,9.230528E-2,-2.3491535E-2,-2.7134449E-3,4.2807706E-2],"split_indices":[3,17,8,0,0,0,0],"split_type":[0,0,0,0,0,0,0],"sum_hessian":[7.21E2,3.49E2,3.72E2,2.9E1,3.2E2,1.79E2,1.93E2],"tree_param":{"num_deleted":"0","num_feature":"21","num_nodes":"7","size_leaf_vector":"1"}},{"base_weights":[1.20934404E-1,-8.6828035E-1,3.819864E-1,2.8531061E-2,-9.521249E-2,2.6588885E-2,-3.1774506E-2],"categories":[],"categories_nodes":[],"categories_segments":[],"categories_sizes":[],"default_left":[0,0,0,0,0,0,0],"id":130,"left_children":[1,3,5,-1,-1,-1,-1],"loss_changes":[1.8553786E2,3.6802734E2,1.9148984E2,0E0,0E0,0E0,0E0],"parents":[2147483647,0,0,1,1,2,2],"right_children":[2,4,6,-1,-1,-1,-1],"split_conditions":[-3.951389E1,2.663306E0,1.1897425E1,2.8531061E-2,-9.521249E-2,2.6588885E-2,-3.1774506E-2],"split_indices":[13,19,8,0,0,0,0],"split_type":[0,0,0,0,0,0,0],"sum_hessian":[7.08E2,1.45E2,5.63E2,7.2E1,7.3E1,4.56E2,1.07E2],"tree_param":{"num_deleted":"0","num_feature":"21","num_nodes":"7","size_leaf_vector":"1"}},{"base_weights":[-6.682948E-2,-1.5894169E-1,9.90481E-2,2.8355723E-2,-1.601757E-2],"categories":[],"categories_nodes":[],"categories_segments":[],"categories_sizes":[],"default_left":[0,0,0,0,0],"id":131,"left_children":[1,3,-1,-1,-1],"loss_changes":[1.6759119E2,1.4629446E2,0E0,0E0,0E0],"parents":[2147483647,0,0,1,1],"right_children":[2,4,-1,-1,-1],"split_conditions":[1.1521324E1,3.432887E-2,9.90481E-2,2.8355723E-2,-1.601757E-2],"split_indices":[0,2,0,0,0],"split_type":[0,0,0,0,0],"sum_hessian":[7.07E2,6.87E2,2E1,1.47E2,5.4E2],"tree_param":{"num_deleted":"0","num_feature":"21","num_nodes":"5","size_leaf_vector":"1"}},{"base_weights":[-4.832158E-2,1.0119056E0,-2.3707637E-1,-8.394893E-2,7.375176E-2,-1.4012863E-2,6.388125E-2],"categories":[],"categories_nodes":[],"categories_segments":[],"categories_sizes":[],"default_left":[0,0,0,0,0,0,0],"id":132,"left_children":[1,3,5,-1,-1,-1,-1],"loss_changes":[1.4309949E2,2.9869183E2,1.2845801E2,0E0,0E0,0E0,0E0],"parents":[2147483647,0,0,1,1,2,2],"right_children":[2,4,6,-1,-1,-1,-1],"split_conditions":[-1.4969632E1,2.6728E0,2.6812918E0,-8.394893E-2,7.375176E-2,-1.4012863E-2,6.388125E-2],"split_indices":[8,20,2,0,0,0,0],"split_type":[0,0,0,0,0,0,0],"sum_hessian":[7.06E2,1.03E2,6.03E2,2E1,8.3E1,5.72E2,3.1E1],"tree_param":{"num_deleted":"0","num_feature":"21","num_nodes":"7","size_leaf_vector":"1"}},{"base_weights":[-1.6695973E-1,3.1912696E-1,-7.5440806E-1,2.430249E-2,-5.4032274E-2,-7.3834E-2,-3.1789893E-3],"categories":[],"categories_nodes":[],"categories_segments":[],"categories_sizes":[],"default_left":[0,0,0,0,0,0,0],"id":133,"left_children":[1,3,5,-1,-1,-1,-1],"loss_changes":[2.0073586E2,1.8917401E2,2.3255875E2,0E0,0E0,0E0,0E0],"parents":[2147483647,0,0,1,1,2,2],"right_children":[2,4,6,-1,-1,-1,-1],"split_conditions":[2.842658E0,-2.5149393E1,-8.68389E0,2.430249E-2,-5.4032274E-2,-7.3834E-2,-3.1789893E-3],"split_indices":[11,13,12,0,0,0,0],"split_type":[0,0,0,0,0,0,0],"sum_hessian":[6.93E2,3.8E2,3.13E2,3.27E2,5.3E1,1.16E2,1.97E2],"tree_param":{"num_deleted":"0","num_feature":"21","num_nodes":"7","size_leaf_vector":"1"}},{"base_weights":[9.510583E-2,9.8972726E-1,-1.3953172E-1,-1.2037985E-2,9.1597E-2,3.8854986E-2,-1.8995166E-2],"categories":[],"categories_nodes":[],"categories_segments":[],"categories_sizes":[],"default_left":[0,0,0,0,0,0,0],"id":134,"left_children":[1,3,5,-1,-1,-1,-1],"loss_changes":[1.5057277E2,2.544824E2,2.136607E2,0E0,0E0,0E0,0E0],"parents":[2147483647,0,0,1,1,2,2],"right_children":[2,4,6,-1,-1,-1,-1],"split_conditions":[1.1209404E0,6.2446E0,4.036E0,-1.2037985E-2,9.1597E-2,3.8854986E-2,-1.8995166E-2],"split_indices":[17,20,20,0,0,0,0],"split_type":[0,0,0,0,0,0,0],"sum_hessian":[7.07E2,1.44E2,5.63E2,7.4E1,7E1,1.28E2,4.35E2],"tree_param":{"num_deleted":"0","num_feature":"21","num_nodes":"7","size_leaf_vector":"1"}},{"base_weights":[3.8289346E-2,-1.7649366E-1,1.2832944E0,-2.0787723E-2,3.440181E-2,1.0060584E-1,-1.8270826E-2],"categories":[],"categories_nodes":[],"categories_segments":[],"categories_sizes":[],"default_left":[0,0,0,0,0,0,0],"id":135,"left_children":[1,3,5,-1,-1,-1,-1],"loss_changes":[1.926137E2,2.20133E2,2.3398462E2,0E0,0E0,0E0,0E0],"parents":[2147483647,0,0,1,1,2,2],"right_children":[2,4,6,-1,-1,-1,-1],"split_conditions":[3.7282446E-1,7.704918E0,2.6608794E0,-2.0787723E-2,3.440181E-2,1.0060584E-1,-1.8270826E-2],"split_indices":[15,5,11,0,0,0,0],"split_type":[0,0,0,0,0,0,0],"sum_hessian":[7.09E2,6.08E2,1.01E2,4.59E2,1.49E2,5.8E1,4.3E1],"tree_param":{"num_deleted":"0","num_feature":"21","num_nodes":"7","size_leaf_vector":"1"}},{"base_weights":[-7.9577096E-4,6.2092227E-1,-3.7189794E-1,4.371584E-3,1.0943523E-1,-2.2648391E-3,-5.5744868E-2],"categories":[],"categories_nodes":[],"categories_segments":[],"categories_sizes":[],"default_left":[0,0,0,0,0,0,0],"id":136,